{"learner":{"attributes":{"best_iteration":"99","best_ntree_limit":"100","scikit_learn":"{\"n_estimators\": 100, \"objective\": \"reg:squarederror\", \"max_depth\": null, \"max_leaves\": null, \"max_bin\": null, \"grow_policy\": null, \"learning_rate\": null, \"verbosity\": null, \"booster\": null, \"tree_method\": null, \"gamma\": null, \"min_child_weight\": null, \"max_delta_step\": null, \"subsample\": null, \"sampling_method\": null, \"colsample_bytree\": null, \"colsample_bylevel\": null, \"colsample_bynode\": null, \"reg_alpha\": null, \"reg_lambda\": null, \"scale_pos_weight\": null, \"base_score\": null, \"missing\": NaN, \"num_parallel_tree\": null, \"random_state\": null, \"n_jobs\": null, \"monotone_constraints\": null, \"interaction_constraints\": null, \"importance_type\": null, \"gpu_id\": null, \"validate_parameters\": null, \"predictor\": null, \"enable_categorical\": false, \"feature_types\": null, \"max_cat_to_onehot\": null, \"max_cat_threshold\": null, \"eval_metric\": null, \"early_stopping_rounds\": null, \"callbacks\": null, \"_estimator_type\": \"regressor\"}"},"feature_names":[],"feature_types":[],"gradient_booster":{"model":{"gbtree_model_param":{"num_parallel_tree":"1","num_trees":"100","size_leaf_vector":"0"},"tree_info":[0,0,0,0,0,0,0,0,0,0,0,0,0,0,0,0,0,0,0,0,0,0,0,0,0,0,0,0,0,0,0,0,0,0,0,0,0,0,0,0,0,0,0,0,0,0,0,0,0,0,0,0,0,0,0,0,0,0,0,0,0,0,0,0,0,0,0,0,0,0,0,0,0,0,0,0,0,0,0,0,0,0,0,0,0,0,0,0,0,0,0,0,0,0,0,0,0,0,0,0],"trees":[{"base_weights":[2.6398037E1,2.0268656E1,7.147349E1,2.7093838E1,1.3860493E1,5.6852295E1,1.1155502E2,2.2910404E1,3.9152687E1,1.6891499E1,7.274103E0,7.5805885E1,4.0880943E1,1.3423358E2,5.529643E1,2.8023874E1,1.9007359E1,4.8876343E1,3.177453E1,1.4429971E1,2.3862267E1,9.041382E0,4.931545E0,9.376102E1,5.7669422E1,5.2131817E1,3.473883E1,1.5642891E2,9.6225E1,7.063125E1,3.3456E1,3.1669094E1,2.1515762E1,1.7422915E1,2.3357597E1,5.5028206E1,3.4188236E1,3.6306858E1,2.7629147E1,1.5266028E1,5.2675E0,2.4637472E1,7.3543477E0,8.09757E0,1.2830737E1,4.484225E0,8.400732E0,1.0876522E2,8.302192E1,4.9036507E1,6.591017E1,5.4563587E1,1.765E1,3.7290062E1,1.8828571E1,1.4443553E2,2.508125E2,1.0018125E2,3.9E1,4.8364285E1,8.332105E1,3.6845E1,1.6583334E1,5.3572414E1,3.0310917E1,1.8868895E1,2.501371E1,1.4933637E1,1.8490402E1,2.1279428E1,2.6479816E1,4.882518E1,6.9189476E1,1.25E1,3.482927E1,3.5168823E1,6.25E1,7.2599998E0,2.8009743E1,1.4133581E1,1.8611147E1,2.4678571E0,5.5968933E0,2.2650166E1,2.8244654E1,8.0275E0,2.15E0,7.297136E0,8.880933E0,1.1077637E1,1.4869513E1,4.338567E0,7.0625E0,9.832857E0,6.5685716E0,1.1211818E2,2.3333334E1,6.860227E1,1.01403336E2,5.444872E1,3.8632E1,7.440323E1,5.455862E1,4.8828224E1,6.427419E1,6.575E0,2.298E1,3.080482E1,4.3631645E1,2.32E1,1.1066667E1,2.0945E2,1.3257613E2,2.652857E2,7.475E1,4.9966667E1,1.0485814E2,4.45E1,8.5E0,3.0666666E1,8.771176E1,1.565E1,3.9664707E1],"categories":[],"categories_nodes":[],"categories_segments":[],"categories_sizes":[],"default_left":[1,1,1,1,1,1,1,1,1,1,1,1,1,1,1,1,1,1,1,1,1,1,1,1,1,1,1,1,1,1,1,1,1,1,1,1,1,1,1,1,1,1,1,1,1,1,1,1,1,1,1,1,1,1,1,1,1,1,1,0,1,1,0,0,0,0,0,0,0,0,0,0,0,0,0,0,0,0,0,0,0,0,0,0,0,0,0,0,0,0,0,0,0,0,0,0,0,0,0,0,0,0,0,0,0,0,0,0,0,0,0,0,0,0,0,0,0,0,0,0,0,0,0],"id":0,"left_children":[1,3,5,7,9,11,13,15,17,19,21,23,25,27,29,31,33,35,37,39,41,43,45,47,49,51,53,55,57,59,61,63,65,67,69,71,73,75,77,79,81,83,85,87,89,91,93,95,97,99,101,103,105,107,109,111,113,115,117,-1,119,121,-1,-1,-1,-1,-1,-1,-1,-1,-1,-1,-1,-1,-1,-1,-1,-1,-1,-1,-1,-1,-1,-1,-1,-1,-1,-1,-1,-1,-1,-1,-1,-1,-1,-1,-1,-1,-1,-1,-1,-1,-1,-1,-1,-1,-1,-1,-1,-1,-1,-1,-1,-1,-1,-1,-1,-1,-1,-1,-1,-1,-1],"loss_changes":[1.6405108E6,2.284995E5,4.1033225E5,1.26886375E5,5.379825E4,1.5522075E5,2.3371575E5,3.7048438E4,4.5151375E4,3.1382188E4,3.486789E3,7.209575E4,1.7952781E4,9.799175E4,1.6392422E4,1.8605812E4,6.975125E3,2.3328938E4,6.004875E3,1.0406594E4,5.9741875E3,1.6306758E3,5.3495605E2,9.983625E3,5.3761562E3,7.3382812E3,6.928922E3,5.7728E4,7.8655625E3,5.01225E3,8.185254E2,1.38156875E4,2.2593125E3,1.8204375E3,1.2727656E3,1.37510625E4,7.46375E2,3.0184531E3,1.339375E3,4.4873125E3,9.316089E1,2.650625E3,6.331726E1,1.8036133E2,1.7482715E2,9.291406E1,4.29917E1,1.0560625E4,1.2392375E4,1.4441406E3,1.6288125E3,1.9854062E3,3.2114453E2,5.2773594E3,6.9331055E2,3.0830375E4,5.5540625E2,6.0332812E3,4.605E2,0E0,1.7027969E3,5.7451953E2,0E0,0E0,0E0,0E0,0E0,0E0,0E0,0E0,0E0,0E0,0E0,0E0,0E0,0E0,0E0,0E0,0E0,0E0,0E0,0E0,0E0,0E0,0E0,0E0,0E0,0E0,0E0,0E0,0E0,0E0,0E0,0E0,0E0,0E0,0E0,0E0,0E0,0E0,0E0,0E0,0E0,0E0,0E0,0E0,0E0,0E0,0E0,0E0,0E0,0E0,0E0,0E0,0E0,0E0,0E0,0E0,0E0,0E0,0E0,0E0,0E0],"parents":[2147483647,0,0,1,1,2,2,3,3,4,4,5,5,6,6,7,7,8,8,9,9,10,10,11,11,12,12,13,13,14,14,15,15,16,16,17,17,18,18,19,19,20,20,21,21,22,22,23,23,24,24,25,25,26,26,27,27,28,28,29,29,30,30,31,31,32,32,33,33,34,34,35,35,36,36,37,37,38,38,39,39,40,40,41,41,42,42,43,43,44,44,45,45,46,46,47,47,48,48,49,49,50,50,51,51,52,52,53,53,54,54,55,55,56,56,57,57,58,58,60,60,61,61],"right_children":[2,4,6,8,10,12,14,16,18,20,22,24,26,28,30,32,34,36,38,40,42,44,46,48,50,52,54,56,58,60,62,64,66,68,70,72,74,76,78,80,82,84,86,88,90,92,94,96,98,100,102,104,106,108,110,112,114,116,118,-1,120,122,-1,-1,-1,-1,-1,-1,-1,-1,-1,-1,-1,-1,-1,-1,-1,-1,-1,-1,-1,-1,-1,-1,-1,-1,-1,-1,-1,-1,-1,-1,-1,-1,-1,-1,-1,-1,-1,-1,-1,-1,-1,-1,-1,-1,-1,-1,-1,-1,-1,-1,-1,-1,-1,-1,-1,-1,-1,-1,-1,-1,-1],"split_conditions":[7.9737425E-1,-7.6764435E-2,2.3718581E0,9.2984885E-2,9.437262E-1,-4.3403077E-1,-6.554055E-2,-2.6856154E-1,-4.6167582E-1,5.7258815E-2,1.697098E0,-5.047177E-1,-3.908214E-2,-4.210538E-1,5.2075493E-1,-3.5879284E-1,-1.71539E-1,-4.4294584E-1,5.8490336E-2,2.3110352E0,1.6573058E0,-6.6052474E-2,-8.1680104E-2,-7.1256995E-1,1.3960891E0,8.775189E-1,7.0772505E-1,7.5993013E0,-3.2024485E-1,3.3017025E0,1.2895287E0,-9.560149E-1,-3.4344295E-1,-6.40368E-1,7.381484E-2,4.6528703E-1,-4.958124E-1,2.6991935E0,-6.989716E-1,-2.4889578E-1,-6.8725085E-1,2.9103893E-1,7.401929E-1,-3.934514E-1,2.4728157E-1,9.2984885E-2,2.2244139E0,-8.1332743E-1,-1.2504975E0,2.1004891E-1,1.00558415E-1,1.5631282E0,-3.1431335E-1,1.2583895E0,1.5362263E0,-1.7271223E0,-7.8172314E-1,-1.137281E0,3.6923933E0,1.4509286E1,1.3811182E0,5.320691E-1,4.9750004E0,1.6071726E1,9.093275E0,5.6606684E0,7.504113E0,4.480091E0,5.547121E0,6.3838286E0,7.9439454E0,1.4647554E1,2.0756844E1,3.7500002E0,1.0448781E1,1.0550648E1,1.875E1,2.178E0,8.402924E0,4.2400746E0,5.5833445E0,7.4035716E-1,1.6790681E0,6.79505E0,8.473396E0,2.40825E0,6.4500004E-1,2.1891408E0,2.66428E0,3.323291E0,4.460854E0,1.30157E0,2.11875E0,2.9498572E0,1.9705715E0,3.3635456E1,7.0000005E0,2.0580683E1,3.0421001E1,1.6334616E1,1.1589601E1,2.2320969E1,1.6367586E1,1.4648468E1,1.9282259E1,1.9725E0,6.894E0,9.2414465E0,1.3089494E1,6.9600005E0,3.3200002E0,6.2835003E1,3.977284E1,7.958572E1,2.2425001E1,1.4990001E1,3.1457443E1,1.335E1,2.5500002E0,9.2E0,2.631353E1,4.695E0,1.1899412E1],"split_indices":[0,1,0,4,1,1,1,2,2,3,1,2,1,2,1,1,0,1,2,2,2,0,0,2,4,2,1,0,1,0,5,2,0,0,0,0,0,4,0,0,0,0,1,0,0,4,1,1,1,2,2,0,1,0,1,1,1,1,0,0,3,1,0,0,0,0,0,0,0,0,0,0,0,0,0,0,0,0,0,0,0,0,0,0,0,0,0,0,0,0,0,0,0,0,0,0,0,0,0,0,0,0,0,0,0,0,0,0,0,0,0,0,0,0,0,0,0,0,0,0,0,0,0],"split_type":[0,0,0,0,0,0,0,0,0,0,0,0,0,0,0,0,0,0,0,0,0,0,0,0,0,0,0,0,0,0,0,0,0,0,0,0,0,0,0,0,0,0,0,0,0,0,0,0,0,0,0,0,0,0,0,0,0,0,0,0,0,0,0,0,0,0,0,0,0,0,0,0,0,0,0,0,0,0,0,0,0,0,0,0,0,0,0,0,0,0,0,0,0,0,0,0,0,0,0,0,0,0,0,0,0,0,0,0,0,0,0,0,0,0,0,0,0,0,0,0,0,0,0],"sum_hessian":[5.942E3,5.232E3,7.1E2,2.532E3,2.7E3,5.22E2,1.88E2,1.882E3,6.5E2,1.848E3,8.52E2,2.37E2,2.85E2,1.33E2,5.5E1,8.12E2,1.07E3,2.78E2,3.72E2,1.368E3,4.8E2,4.84E2,3.68E2,1.17E2,1.2E2,9.8E1,1.87E2,8.2E1,5.1E1,3.1E1,2.4E1,5.18E2,2.94E2,7.88E2,2.82E2,1.94E2,8.4E1,1.74E2,1.98E2,1.253E3,1.15E2,4.58E2,2.2E1,3.9E2,9.4E1,3.28E2,4E1,4.5E1,7.2E1,6.2E1,5.8E1,9.1E1,7E0,1.6E2,2.7E1,7.5E1,7E0,4.7E1,4E0,1.3E1,1.8E1,1.9E1,5E0,2.8E1,4.9E2,1.71E2,1.23E2,2.41E2,5.47E2,1.74E2,1.08E2,1.38E2,5.6E1,3E0,8.1E1,1.69E2,5E0,4E0,1.94E2,9.4E2,3.13E2,1.3E1,1.02E2,3E2,1.58E2,1.9E1,3E0,1.98E2,1.92E2,5.4E1,4E1,3.13E2,1.5E1,2E1,2E1,4.3E1,2E0,4.3E1,2.9E1,3.8E1,2.4E1,3E1,2.8E1,6.1E1,3E1,3E0,4E0,8.2E1,7.8E1,1.6E1,1.1E1,9E0,6.6E1,6E0,1E0,5E0,4.2E1,3E0,1E0,2E0,1.6E1,3E0,1.6E1],"tree_param":{"num_deleted":"0","num_feature":"17","num_nodes":"123","size_leaf_vector":"0"}},{"base_weights":[1.8609186E1,1.4350462E1,5.188051E1,1.9317904E1,9.880678E0,4.1656616E1,8.242594E1,1.5826043E1,2.7673954E1,1.23435755E1,5.7449765E0,5.33696E1,2.7318073E1,7.475776E1,1.8507565E2,2.0438389E1,1.355133E1,3.459787E1,2.0617674E1,1.048851E1,1.717348E1,4.935864E0,9.28442E0,7.299608E1,4.3108738E1,2.2517073E1,3.3227104E1,8.9488945E1,3.6945114E1,1.9677896E2,3.402128E1,2.3825298E1,1.4869293E1,1.2846201E1,1.8321676E1,3.856647E1,2.4387413E1,1.9211315E1,2.874047E1,1.0845211E1,3.769339E0,1.5008828E1,1.9357082E1,6.062217E0,3.1528733E0,8.456086E0,1.4479445E1,9.945029E1,6.6714264E1,4.408285E1,6.70055E0,2.5429804E1,1.2394809E1,2.3093239E1,3.825123E1,1.5211093E2,8.260713E1,4.501078E1,1.7275352E1,1.9569618E1,2.989989E1,1.1938959E1,1.6312899E1,1.4634637E1,1.1387464E1,6.424439E0,1.9216965E1,5.0569183E1,3.3353752E1,2.183682E1,2.7898426E1,1.669181E1,2.1289162E1,3.0319544E1,1.7827168E1,1.0136045E1,1.394203E1,4.3718176E0,2.0806115E0,1.1653966E1,1.6303349E1,1.86298E1,2.668288E1,8.7451315E0,5.637366E0,2.9269423E0,4.2293115E0,9.530622E0,6.196367E0,2.236566E1,1.0811922E1,1.02913635E2,2.375E1,5.2283165E1,8.168246E1,3.7884094E1,4.9112137E1,7.73516E0,7.637501E-1,3.0738276E1,2.3045324E1,1.6057846E1,1.6565139E0,2.4397503E1,6.138436E-1,4.849306E1,3.400398E1,8.912804E1,5.715712E1,3.979907E1,8.212431E1,1.2154866E1,2.5085352E1],"categories":[],"categories_nodes":[],"categories_segments":[],"categories_sizes":[],"default_left":[1,1,1,1,1,1,1,1,1,1,1,1,1,1,1,1,1,1,1,1,1,1,1,1,1,1,1,1,1,0,0,1,1,1,1,1,1,1,1,1,1,1,1,1,1,1,1,1,1,1,1,1,1,1,1,0,1,1,1,0,0,0,0,0,0,0,0,0,0,0,0,0,0,0,0,0,0,0,0,0,0,0,0,0,0,0,0,0,0,0,0,0,0,0,0,0,0,0,0,0,0,0,0,0,0,0,0,0,0,0,0,0,0],"id":1,"left_children":[1,3,5,7,9,11,13,15,17,19,21,23,25,27,29,31,33,35,37,39,41,43,45,47,49,51,53,55,57,-1,-1,59,61,63,65,67,69,71,73,75,77,79,81,83,85,87,89,91,93,95,97,99,101,103,105,-1,107,109,111,-1,-1,-1,-1,-1,-1,-1,-1,-1,-1,-1,-1,-1,-1,-1,-1,-1,-1,-1,-1,-1,-1,-1,-1,-1,-1,-1,-1,-1,-1,-1,-1,-1,-1,-1,-1,-1,-1,-1,-1,-1,-1,-1,-1,-1,-1,-1,-1,-1,-1,-1,-1,-1,-1],"loss_changes":[8.413396E5,1.16821E5,2.07052E5,7.23615E4,2.8204906E4,8.369125E4,1.18403125E5,1.8209562E4,3.514775E4,1.54009375E4,2.9268047E3,5.2838125E4,5.7767656E3,8.470381E4,1.27515625E4,1.0585719E4,3.7439219E3,1.40118125E4,3.6289062E3,2.9766094E3,1.9830312E3,1.6819004E3,7.037793E2,8.9861875E3,6.2657812E3,3.5176406E3,4.258953E3,3.613225E4,6.5203086E3,0E0,0E0,8.6955625E3,7.4435156E2,2.5308906E3,1.4742617E3,1.4830906E4,3.4003516E2,1.2937031E3,3.5560156E2,2.4830938E3,5.7036438E1,8.783633E2,7.6028906E2,5.411367E2,6.78772E1,3.4887305E2,4.8125586E2,1.750625E3,1.2794E4,3.7509688E3,3.0945923E1,5.574258E2,1.1927778E3,1.0405098E3,1.2220078E3,0E0,1.216525E4,2.9211367E3,2.9495557E2,0E0,0E0,0E0,0E0,0E0,0E0,0E0,0E0,0E0,0E0,0E0,0E0,0E0,0E0,0E0,0E0,0E0,0E0,0E0,0E0,0E0,0E0,0E0,0E0,0E0,0E0,0E0,0E0,0E0,0E0,0E0,0E0,0E0,0E0,0E0,0E0,0E0,0E0,0E0,0E0,0E0,0E0,0E0,0E0,0E0,0E0,0E0,0E0,0E0,0E0,0E0,0E0,0E0,0E0],"parents":[2147483647,0,0,1,1,2,2,3,3,4,4,5,5,6,6,7,7,8,8,9,9,10,10,11,11,12,12,13,13,14,14,15,15,16,16,17,17,18,18,19,19,20,20,21,21,22,22,23,23,24,24,25,25,26,26,27,27,28,28,31,31,32,32,33,33,34,34,35,35,36,36,37,37,38,38,39,39,40,40,41,41,42,42,43,43,44,44,45,45,46,46,47,47,48,48,49,49,50,50,51,51,52,52,53,53,54,54,56,56,57,57,58,58],"right_children":[2,4,6,8,10,12,14,16,18,20,22,24,26,28,30,32,34,36,38,40,42,44,46,48,50,52,54,56,58,-1,-1,60,62,64,66,68,70,72,74,76,78,80,82,84,86,88,90,92,94,96,98,100,102,104,106,-1,108,110,112,-1,-1,-1,-1,-1,-1,-1,-1,-1,-1,-1,-1,-1,-1,-1,-1,-1,-1,-1,-1,-1,-1,-1,-1,-1,-1,-1,-1,-1,-1,-1,-1,-1,-1,-1,-1,-1,-1,-1,-1,-1,-1,-1,-1,-1,-1,-1,-1,-1,-1,-1,-1,-1,-1],"split_conditions":[8.2628536E-1,-1.06770314E-1,2.5703292E0,-9.011615E-3,7.104655E-1,-3.2915637E-1,7.5993013E0,-4.586214E-1,-3.0506742E-1,5.7258815E-2,-9.3400836E-2,-6.2252724E-1,1.3960891E0,-6.554055E-2,5.9495914E-1,-3.8750234E-1,5.7258815E-2,-4.0825385E-1,6.332841E-1,1.8896704E0,1.5273438E-1,1.4029983E0,5.973405E-1,-8.9758265E-1,9.2003E-1,4.8886493E-1,1.2818308E0,-1.7227364E0,1.0080444E0,5.903369E1,1.0206384E1,-3.9579552E-1,-5.739505E-1,1.3800731E-1,-6.2239623E-1,-7.078837E-1,3.9496267E-1,1.9414762E-1,9.466666E-1,-1.4340925E-1,5.1646633E0,9.2984885E-2,1.3960891E0,-1.882599E-1,-3.200015E-1,1.2045484E-1,8.440403E-1,-1.0810463E0,1.3811182E0,1.3960891E0,1.5435936E0,-6.074051E-1,1.5827686E-1,2.7049775E0,-5.0477105E-1,4.563328E1,3.048617E-2,5.305402E0,2.6991935E0,5.870886E0,8.969968E0,3.581688E0,4.89387E0,4.3903913E0,3.4162393E0,1.9273318E0,5.7650895E0,1.5170755E1,1.0006126E1,6.5510464E0,8.369528E0,5.0075436E0,6.386749E0,9.095863E0,5.3481503E0,3.0408137E0,4.182609E0,1.3115454E0,6.241835E-1,3.4961898E0,4.8910046E0,5.5889406E0,8.004865E0,2.6235394E0,1.6912098E0,8.7808275E-1,1.2687935E0,2.8591866E0,1.8589101E0,6.709698E0,3.2435768E0,3.0874092E1,7.1250005E0,1.568495E1,2.4504738E1,1.1365229E1,1.4733642E1,2.320548E0,2.2912504E-1,9.221483E0,6.9135976E0,4.817354E0,4.969542E-1,7.319251E0,1.841531E-1,1.4547919E1,1.0201194E1,2.6738413E1,1.7147137E1,1.1939721E1,2.4637295E1,3.64646E0,7.5256057E0],"split_indices":[0,1,0,0,1,1,0,2,2,3,0,2,4,1,2,1,3,1,0,2,0,1,0,2,2,1,0,1,1,0,0,0,0,2,0,2,0,0,2,0,2,4,4,2,0,2,1,1,3,4,0,2,2,3,2,0,2,4,4,0,0,0,0,0,0,0,0,0,0,0,0,0,0,0,0,0,0,0,0,0,0,0,0,0,0,0,0,0,0,0,0,0,0,0,0,0,0,0,0,0,0,0,0,0,0,0,0,0,0,0,0,0,0],"split_type":[0,0,0,0,0,0,0,0,0,0,0,0,0,0,0,0,0,0,0,0,0,0,0,0,0,0,0,0,0,0,0,0,0,0,0,0,0,0,0,0,0,0,0,0,0,0,0,0,0,0,0,0,0,0,0,0,0,0,0,0,0,0,0,0,0,0,0,0,0,0,0,0,0,0,0,0,0,0,0,0,0,0,0,0,0,0,0,0,0,0,0,0,0,0,0,0,0,0,0,0,0,0,0,0,0,0,0,0,0,0,0,0,0],"sum_hessian":[5.942E3,5.269E3,6.73E2,2.494E3,2.775E3,5.06E2,1.67E2,1.761E3,7.33E2,1.738E3,1.037E3,2.77E2,2.29E2,1.57E2,1E1,5.79E2,1.182E3,3.68E2,3.65E2,1.258E3,4.8E2,8.46E2,1.91E2,9.3E1,1.84E2,1.29E2,1E2,1.12E2,4.5E1,9E0,1E0,3.58E2,2.21E2,1.033E3,1.49E2,2.63E2,1.05E2,3.14E2,5.1E1,1.194E3,6.4E1,2.45E2,2.35E2,5.17E2,3.29E2,1.67E2,2.4E1,1.5E1,7.8E1,1.79E2,5E0,9.9E1,3E1,3.5E1,6.5E1,9E0,1.03E2,3.1E1,1.4E1,2.13E2,1.45E2,7.6E1,1.45E2,4.6E2,5.73E2,1.1E1,1.38E2,7.7E1,1.86E2,6.5E1,4E1,1.46E2,1.68E2,4.3E1,8E0,9.75E2,2.19E2,4.6E1,1.8E1,7.1E1,1.74E2,2.17E2,1.8E1,6.8E1,4.49E2,2.75E2,5.4E1,1.11E2,5.6E1,6E0,1.8E1,1.4E1,1E0,4.2E1,3.6E1,8.4E1,9.5E1,4E0,1E0,2.7E1,7.2E1,2.2E1,8E0,3.3E1,2E0,1.6E1,4.9E1,8E1,2.3E1,2.9E1,2E0,1E1,4E0],"tree_param":{"num_deleted":"0","num_feature":"17","num_nodes":"113","size_leaf_vector":"0"}},{"base_weights":[1.3114614E1,1.0313322E1,3.9198326E1,8.620836E0,1.8007229E1,3.725073E1,1.358475E2,1.0907318E1,5.3001957E0,4.4140846E1,1.67136E1,4.7830727E1,2.387791E1,1.4364865E2,2.8918087E1,1.36690035E1,8.85229E0,6.8510995E0,3.2738585E0,6.874018E1,2.8198448E1,2.0071955E1,1.1524464E1,3.833196E1,6.757731E1,2.0825222E1,3.9536526E1,1.5204945E2,3.4020653E1,1.5946481E1,1.0556764E1,7.335134E0,1.0386141E1,7.618907E0,2.811108E0,4.109939E0,2.2378912E0,1.7495224E1,7.084953E1,4.4305733E1,1.738905E1,2.3236746E1,1.3852688E1,1.2900382E1,6.296401E0,4.3851128E1,2.2995668E1,1.0592232E2,5.9113277E1,2.166425E1,-5.998854E-1,5.021001E1,2.2142397E1,3.0305391E1,1.5013615E1,8.25681E0,1.183595E1,7.424034E0,-8.684458E-1,9.490636E0,1.2781962E1,5.360953E0,8.648016E0,4.886179E0,2.1245964E0,2.8252409E0,4.4895296E0,2.1813917E0,8.064708E0,6.824463E0,4.7371414E1,3.0891998E0,2.0996395E1,2.1196516E1,3.4499218E1,1.2236668E1,1.5765516E1,1.3328037E1,2.8285928E0,7.7619443E0,3.402147E0,1.03226715E2,4.1624138E1,2.9807877E1,1.7815428E1,1.1244323E2,3.801032E1,3.950294E1,7.0208145E1,2.2972368E1,6.7981095E0,-1.3824793E0,2.830433E0,5.1920074E1,5.43927E0,2.8498714E0,2.4524742E1],"categories":[],"categories_nodes":[],"categories_segments":[],"categories_sizes":[],"default_left":[1,1,1,1,1,1,1,1,1,1,1,1,1,1,0,1,1,1,1,1,1,1,1,1,1,1,1,0,0,1,1,1,1,1,1,1,1,0,0,1,1,1,1,1,1,1,1,1,1,1,1,1,1,0,0,0,0,0,0,0,0,0,0,0,0,0,0,0,0,0,0,0,0,0,0,0,0,0,0,0,0,0,0,0,0,0,0,0,0,0,0,0,0,0,0,0,0],"id":2,"left_children":[1,3,5,7,9,11,13,15,17,19,21,23,25,27,-1,29,31,33,35,37,39,41,43,45,47,49,51,-1,-1,53,55,57,59,61,63,65,67,-1,-1,69,71,73,75,77,79,81,83,85,87,89,91,93,95,-1,-1,-1,-1,-1,-1,-1,-1,-1,-1,-1,-1,-1,-1,-1,-1,-1,-1,-1,-1,-1,-1,-1,-1,-1,-1,-1,-1,-1,-1,-1,-1,-1,-1,-1,-1,-1,-1,-1,-1,-1,-1,-1,-1],"loss_changes":[4.3383938E5,6.9745875E4,1.03362125E5,3.336475E4,3.1953844E4,7.893806E4,5.0218594E3,1.46689375E4,5.624918E3,1.5709383E4,1.5853766E4,5.6493625E4,1.1222453E4,4.0368125E3,0E0,7.6994062E3,3.4074844E3,3.13325E3,6.672666E2,5.980703E2,4.278758E3,1.0680719E4,2.5443633E3,1.719E4,2.6518469E4,3.8419375E3,6.3144688E3,0E0,0E0,8.104375E3,1.2909297E3,5.577969E2,1.4706328E3,1.9380625E3,2.232467E2,1.9749756E2,9.79613E1,0E0,0E0,9.4067773E2,9.1524316E2,7.7476406E3,3.975E2,1.2027852E3,3.0444165E2,1.6463188E4,1.551002E3,3.2544375E3,1.5720344E4,3.830414E3,2.8073933E1,1.5550508E3,7.1145215E2,0E0,0E0,0E0,0E0,0E0,0E0,0E0,0E0,0E0,0E0,0E0,0E0,0E0,0E0,0E0,0E0,0E0,0E0,0E0,0E0,0E0,0E0,0E0,0E0,0E0,0E0,0E0,0E0,0E0,0E0,0E0,0E0,0E0,0E0,0E0,0E0,0E0,0E0,0E0,0E0,0E0,0E0,0E0,0E0],"parents":[2147483647,0,0,1,1,2,2,3,3,4,4,5,5,6,6,7,7,8,8,9,9,10,10,11,11,12,12,13,13,15,15,16,16,17,17,18,18,19,19,20,20,21,21,22,22,23,23,24,24,25,25,26,26,29,29,30,30,31,31,32,32,33,33,34,34,35,35,36,36,39,39,40,40,41,41,42,42,43,43,44,44,45,45,46,46,47,47,48,48,49,49,50,50,51,51,52,52],"right_children":[2,4,6,8,10,12,14,16,18,20,22,24,26,28,-1,30,32,34,36,38,40,42,44,46,48,50,52,-1,-1,54,56,58,60,62,64,66,68,-1,-1,70,72,74,76,78,80,82,84,86,88,90,92,94,96,-1,-1,-1,-1,-1,-1,-1,-1,-1,-1,-1,-1,-1,-1,-1,-1,-1,-1,-1,-1,-1,-1,-1,-1,-1,-1,-1,-1,-1,-1,-1,-1,-1,-1,-1,-1,-1,-1,-1,-1,-1,-1,-1,-1],"split_conditions":[9.8725E-1,1.5429714E-1,7.5993013E0,2.1546726E-1,-1.6842577E0,-3.3128083E-1,5.9495914E-1,-2.3177327E-1,9.437262E-1,-9.815277E-1,2.8859003E-2,2.4242108E0,3.6298826E0,7.9019576E-1,8.6754265E0,-4.4320297E-1,-3.8563758E-1,1.8035933E-1,1.4029983E0,-1.2419202E0,-1.9471209E0,5.8490336E-2,9.334134E-1,5.8490336E-2,-8.2228684E-1,3.239358E0,-2.0853469E-1,4.5614838E1,1.0206196E1,-9.560149E-1,-5.153469E-1,2.3152945E0,5.7258815E-2,-6.0129887E-1,3.102327E-1,-5.54416E-1,1.3960891E0,5.2485676E0,2.125486E1,-2.4101644E0,-1.8618844E0,1.3960891E0,4.7388223E-1,2.7770867E0,1.5344712E0,-1.9586265E0,-9.638064E-1,-1.3236969E0,3.1297984E0,1.0205269E0,2.711759E0,2.2896442E0,1.335697E-1,9.091618E0,4.5040846E0,2.4770432E0,3.550785E0,2.2272103E0,-2.6053375E-1,2.8471909E0,3.8345888E0,1.6082859E0,2.594405E0,1.4658537E0,6.3737893E-1,8.4757227E-1,1.346859E0,6.544175E-1,2.4194124E0,2.047339E0,1.4211425E1,9.2675996E-1,6.2989187E0,6.358955E0,1.0349766E1,3.6710005E0,4.7296553E0,3.9984114E0,8.4857786E-1,2.3285835E0,1.0206442E0,3.0968016E1,1.2487242E1,8.942364E0,5.3446283E0,3.373297E1,1.1403096E1,1.1850883E1,2.1062445E1,6.8917108E0,2.039433E0,-4.147438E-1,8.491299E-1,1.5576023E1,1.6317811E0,8.5496145E-1,7.357423E0],"split_indices":[0,0,0,1,1,1,2,2,1,2,1,0,0,13,0,1,0,2,1,2,1,2,1,2,2,2,2,0,0,2,0,2,3,0,1,0,4,0,0,1,1,4,0,2,1,1,1,1,0,1,0,1,1,0,0,0,0,0,0,0,0,0,0,0,0,0,0,0,0,0,0,0,0,0,0,0,0,0,0,0,0,0,0,0,0,0,0,0,0,0,0,0,0,0,0,0,0],"split_type":[0,0,0,0,0,0,0,0,0,0,0,0,0,0,0,0,0,0,0,0,0,0,0,0,0,0,0,0,0,0,0,0,0,0,0,0,0,0,0,0,0,0,0,0,0,0,0,0,0,0,0,0,0,0,0,0,0,0,0,0,0,0,0,0,0,0,0,0,0,0,0,0,0,0,0,0,0,0,0,0,0,0,0,0,0,0,0,0,0,0,0,0,0,0,0,0,0],"sum_hessian":[5.942E3,5.367E3,5.75E2,4.401E3,9.66E2,5.65E2,1E1,2.605E3,1.796E3,4.4E1,9.22E2,3.14E2,2.51E2,9E0,1E0,1.109E3,1.496E3,1.016E3,7.8E2,1.6E1,2.8E1,5.58E2,3.64E2,2.14E2,1E2,2.12E2,3.9E1,8E0,1E0,6.38E2,4.71E2,7.55E2,7.41E2,8.53E2,1.63E2,4.3E2,3.5E2,1E0,1.5E1,1E1,1.8E1,3.68E2,1.9E2,2.87E2,7.7E1,1.56E2,5.8E1,1.6E1,8.4E1,2.04E2,8E0,2.3E1,1.6E1,3.7E1,6.01E2,1.71E2,3E2,7.47E2,8E0,5.43E2,1.98E2,2.69E2,5.84E2,3.9E1,1.24E2,1E2,3.3E2,3.48E2,2E0,1E0,9E0,4E0,1.4E1,3.14E2,5.4E1,1.07E2,8.3E1,2.75E2,1.2E1,5E1,2.7E1,4E0,1.52E2,2.3E1,3.5E1,1.4E1,2E0,3.2E1,5.2E1,1.87E2,1.7E1,7E0,1E0,2.2E1,1E0,2E0,1.4E1],"tree_param":{"num_deleted":"0","num_feature":"17","num_nodes":"97","size_leaf_vector":"0"}},{"base_weights":[9.240504E0,7.79798E0,3.5697403E1,5.7643294E0,1.3199712E1,3.1001604E1,7.018517E1,7.9061074E0,4.087511E0,1.8869528E1,9.544655E0,4.276923E1,2.2240345E1,1.06781265E2,4.485777E1,1.4697618E1,7.2428412E0,4.942169E0,2.3005395E0,3.1637411E1,1.6419554E1,7.8402834E0,1.2469831E1,4.8944775E1,4.289922E0,2.6126844E1,1.7812641E1,1.1302516E2,4.621191E1,4.654596E1,3.85878E0,5.486562E0,1.8398697E1,-8.3100605E0,7.4108696E0,5.241531E0,1.5054314E0,2.9923227E0,1.4474936E0,2.7786083E1,5.6281204E1,1.3797625E1,2.6232933E1,8.932838E0,4.0432396E0,1.7398884E1,1.1572378E1,-9.333293E0,5.0863186E1,-8.814563E0,5.659863E0,2.20567E1,4.8031296E1,1.1328769E1,2.0896011E1,1.262085E1,5.6697014E1,3.0968887E1,5.6946114E1,3.1641076E0,1.3763232E1,2.2011047E1,1.0060863E1,-5.2625484E0,-2.1793436E1,4.4332385E0,7.9269156E0,4.9252687E0,8.19045E0,2.1785126E0,2.8749663E-1,2.6486793E0,4.7171693E0,1.7800536E0,1.1386963E0,3.4827305E1,1.5635452E1,2.2689137E1,7.02411E1,4.920365E0,1.4708352E1,2.9881752E1,1.6861238E1,3.2673218E0,9.208689E0,3.464293E0,7.1989694E0,1.1510308E1,2.671068E1,1.3870332E1,9.45066E0,-2.824863E1,2.370636E1,4.5801857E1,8.247568E1,7.1759925E0,8.891792E-1,2.372615E1,1.6626993E-2,5.2375805E1,1.2084961E-1,1.8581228E1,3.2671113E0,1.9556677E1,3.1744022E1,3.331379E1,3.7599373E0,3.8455048E1,6.9028E1],"categories":[],"categories_nodes":[],"categories_segments":[],"categories_sizes":[],"default_left":[1,1,1,1,1,1,1,1,1,1,1,1,1,1,1,1,1,1,1,1,1,1,1,1,1,1,1,0,1,1,0,1,1,1,1,1,1,1,1,1,1,1,1,1,1,1,1,1,1,0,1,1,1,1,1,0,0,1,1,0,0,0,0,0,0,0,0,0,0,0,0,0,0,0,0,0,0,0,0,0,0,0,0,0,0,0,0,0,0,0,0,0,0,0,0,0,0,0,0,0,0,0,0,0,0,0,0,0,0],"id":3,"left_children":[1,3,5,7,9,11,13,15,17,19,21,23,25,27,29,31,33,35,37,39,41,43,45,47,49,51,53,-1,55,57,-1,59,61,63,65,67,69,71,73,75,77,79,81,83,85,87,89,91,93,-1,95,97,99,101,103,-1,-1,105,107,-1,-1,-1,-1,-1,-1,-1,-1,-1,-1,-1,-1,-1,-1,-1,-1,-1,-1,-1,-1,-1,-1,-1,-1,-1,-1,-1,-1,-1,-1,-1,-1,-1,-1,-1,-1,-1,-1,-1,-1,-1,-1,-1,-1,-1,-1,-1,-1,-1,-1],"loss_changes":[2.2653453E5,6.1847688E4,4.7542062E4,1.4681547E4,3.1754812E4,2.7091781E4,2.857786E4,7.9927734E3,3.5013008E3,1.8342953E4,4.583703E3,2.7117562E4,2.2535156E3,7.153125E1,1.4123086E3,5.319504E3,4.3474375E3,1.5919375E3,4.3590015E2,7.5476562E3,1.2708891E4,2.436379E3,1.320375E3,1.1543047E4,3.5507938E2,6.2512383E3,1.3026719E3,0E0,3.4105273E2,1.8005312E3,0E0,8.5989453E2,3.1820156E3,6.2494446E2,2.4587578E3,1.2933242E3,1.0266455E2,2.311189E2,3.247809E1,6.7276562E3,4.033586E3,3.185789E3,3.1208828E3,6.919414E2,2.2170557E2,2.489045E3,1.3023438E3,3.169497E3,1.15825625E4,0E0,1.0934686E2,2.6120352E3,2.4914395E3,1.5178977E3,1.2017969E2,0E0,0E0,5.765674E2,2.6410156E1,0E0,0E0,0E0,0E0,0E0,0E0,0E0,0E0,0E0,0E0,0E0,0E0,0E0,0E0,0E0,0E0,0E0,0E0,0E0,0E0,0E0,0E0,0E0,0E0,0E0,0E0,0E0,0E0,0E0,0E0,0E0,0E0,0E0,0E0,0E0,0E0,0E0,0E0,0E0,0E0,0E0,0E0,0E0,0E0,0E0,0E0,0E0,0E0,0E0,0E0],"parents":[2147483647,0,0,1,1,2,2,3,3,4,4,5,5,6,6,7,7,8,8,9,9,10,10,11,11,12,12,13,13,14,14,15,15,16,16,17,17,18,18,19,19,20,20,21,21,22,22,23,23,24,24,25,25,26,26,28,28,29,29,31,31,32,32,33,33,34,34,35,35,36,36,37,37,38,38,39,39,40,40,41,41,42,42,43,43,44,44,45,45,46,46,47,47,48,48,50,50,51,51,52,52,53,53,54,54,57,57,58,58],"right_children":[2,4,6,8,10,12,14,16,18,20,22,24,26,28,30,32,34,36,38,40,42,44,46,48,50,52,54,-1,56,58,-1,60,62,64,66,68,70,72,74,76,78,80,82,84,86,88,90,92,94,-1,96,98,100,102,104,-1,-1,106,108,-1,-1,-1,-1,-1,-1,-1,-1,-1,-1,-1,-1,-1,-1,-1,-1,-1,-1,-1,-1,-1,-1,-1,-1,-1,-1,-1,-1,-1,-1,-1,-1,-1,-1,-1,-1,-1,-1,-1,-1,-1,-1,-1,-1,-1,-1,-1,-1,-1,-1],"split_conditions":[1.7272184E0,9.2984885E-2,4.0022974E0,-1.5381517E-1,-4.3403077E-1,-5.7756925E-1,-8.0976295E-1,-7.342316E-1,9.437262E-1,-7.078996E-1,5.4655075E-1,1.4702576E-1,-3.2814246E-1,-3.169061E-1,1.3554199E0,-5.348815E-1,-1.8586526E0,2.1634865E0,1.5656252E0,-1.1299202E0,1.3960891E0,6.529565E-1,-3.2616493E-1,5.7258815E-2,2.7288955E-1,3.6923933E0,1.3960891E0,3.390755E1,6.8179197E0,3.7080207E0,1.157634E0,-8.006294E-1,-8.0445313E-1,7.6221204E-1,-7.575752E-1,3.9434046E-2,4.9398365E0,-1.71539E-1,2.5909958E0,-1.6842577E0,3.7152123E-1,-3.668844E-1,1.00558415E-1,-6.231776E-1,9.212383E-1,-3.453341E-1,-2.4766889E-1,-4.777349E-1,4.473775E0,-2.644369E0,6.719364E-1,3.4189095E0,6.6538296E0,4.4988893E-2,1.5483665E0,3.7862551E0,1.7009106E1,2.831255E0,4.028837E0,9.492323E-1,4.1289697E0,6.6033144E0,3.0182588E0,-1.5787646E0,-6.538031E0,1.3299716E0,2.378075E0,1.4775807E0,2.457135E0,6.535538E-1,8.6248994E-2,7.946038E-1,1.4151509E0,5.3401613E-1,3.416089E-1,1.0448192E1,4.6906357E0,6.806741E0,2.107233E1,1.4761095E0,4.4125056E0,8.964526E0,5.0583715E0,9.801966E-1,2.7626066E0,1.0392879E0,2.1596909E0,3.4530926E0,8.013205E0,4.1611E0,2.835198E0,-8.474589E0,7.1119084E0,1.3740558E1,2.4742704E1,2.152798E0,2.667538E-1,7.1178455E0,4.988098E-3,1.5712742E1,3.6254883E-2,5.5743685E0,9.801334E-1,5.8670034E0,9.523207E0,9.994137E0,1.1279812E0,1.1536514E1,2.07084E1],"split_indices":[0,4,4,1,1,2,1,2,1,2,0,1,1,2,1,0,1,2,1,1,4,1,1,3,1,0,4,0,0,0,0,2,1,0,0,0,2,0,1,1,0,0,2,0,12,1,2,1,0,0,14,0,0,2,2,0,0,5,3,0,0,0,0,0,0,0,0,0,0,0,0,0,0,0,0,0,0,0,0,0,0,0,0,0,0,0,0,0,0,0,0,0,0,0,0,0,0,0,0,0,0,0,0,0,0,0,0,0,0],"split_type":[0,0,0,0,0,0,0,0,0,0,0,0,0,0,0,0,0,0,0,0,0,0,0,0,0,0,0,0,0,0,0,0,0,0,0,0,0,0,0,0,0,0,0,0,0,0,0,0,0,0,0,0,0,0,0,0,0,0,0,0,0,0,0,0,0,0,0,0,0,0,0,0,0,0,0,0,0,0,0,0,0,0,0,0,0,0,0,0,0,0,0,0,0,0,0,0,0,0,0,0,0,0,0,0,0,0,0,0,0],"sum_hessian":[5.942E3,5.636E3,3.06E2,4.096E3,1.54E3,2.71E2,3.5E1,1.797E3,2.299E3,6.02E2,9.38E2,1.14E2,1.57E2,1.3E1,2.2E1,1.58E2,1.639E3,1.554E3,7.45E2,9.5E1,5.07E2,5.95E2,3.43E2,9.8E1,1.6E1,8.1E1,7.6E1,1.1E1,2E0,2.1E1,1E0,4.6E1,1.12E2,1.7E1,1.622E3,1.429E3,1.25E2,4.1E2,3.35E2,8.4E1,1.1E1,4.02E2,1.05E2,4.61E2,1.34E2,5E1,2.93E2,3E0,9.5E1,1E0,1.5E1,7E1,1.1E1,2.6E1,5E1,1E0,1E0,1E1,1.1E1,3.7E1,9E0,7.7E1,3.5E1,1.5E1,2E0,2.41E2,1.381E3,1.293E3,1.36E2,8E1,4.5E1,3.44E2,6.6E1,1.59E2,1.76E2,5.2E1,3.2E1,4E0,7E0,3.8E1,3.64E2,7.4E1,3.1E1,2.2E1,4.39E2,1.15E2,1.9E1,3.2E1,1.8E1,1.38E2,1.55E2,2E0,1E0,8.4E1,1.1E1,1.1E1,4E0,6.5E1,5E0,1E1,1E0,1.3E1,1.3E1,4.7E1,3E0,9E0,1E0,6E0,5E0],"tree_param":{"num_deleted":"0","num_feature":"17","num_nodes":"109","size_leaf_vector":"0"}},{"base_weights":[6.5166993E0,5.184492E0,2.2273314E1,4.3668833E0,1.05762415E1,1.9525461E1,5.1646744E1,6.0463643E0,3.1813247E0,1.5235558E1,6.260551E0,2.6327244E1,1.3362423E1,8.0544945E1,3.4099762E1,8.9943495E0,4.990508E0,3.8954911E0,1.8498797E0,4.694364E1,1.3555943E1,7.218575E0,2.1852095E0,2.1016441E1,3.9375294E1,8.425619E0,1.7767612E1,1.0272217E-1,8.672491E1,4.5992844E1,1.8668772E1,7.42454E0,1.3528606E1,3.5060759E0,6.2299867E0,3.3304138E0,5.246921E0,1.400271E0,2.6132002E0,5.1886883E1,6.5795693E0,1.7817148E1,9.861757E0,-1.5979225E1,7.3478723E0,-5.432021E-2,3.6624975E0,5.8096825E1,1.9552483E1,1.9842587E1,5.200499E1,-2.4587665E0,9.56136E0,2.03472E1,1.0506639E1,4.8123333E1,9.1482315E0,1.2535773E1,4.6132378E1,1.982332E1,7.009088E0,8.071067E0,1.6074709E1,-3.0149344E-1,3.8715975E0,8.0169115E0,4.545793E0,2.3929095E-1,3.511148E0,5.727425E0,3.61197E0,1.5127721E0,-5.13682E-1,6.9806284E-1,2.8231905E0,2.2489058E1,5.736225E1,-1.5653229E0,1.1434677E1,1.1781428E1,2.7953712E1,8.714941E0,2.1819286E1,1.142545E1,6.477309E0,5.040193E-1,-2.3716815E0,7.704603E0,1.3060775E0,1.1296426E1,8.553162E1,2.1628323E1,5.912228E0,8.165775E0,3.0838919E1,6.0037483E1,2.3021683E1,-1.6561224E1,6.0760164E-1,1.0390925E1,-7.946728E0,3.7517145E0,2.1544966E1,1.3485459E1,2.3068032E0,1.1335007E1,5.0244446E1,1.5536538E1,-1.645368E0],"categories":[],"categories_nodes":[],"categories_segments":[],"categories_sizes":[],"default_left":[1,1,1,1,1,1,1,1,1,1,1,1,1,1,1,1,1,1,1,1,1,1,1,1,1,1,1,0,0,1,1,1,1,1,1,1,1,1,1,1,1,1,1,0,1,1,1,1,1,1,1,1,1,1,1,1,0,1,0,0,0,0,0,0,0,0,0,0,0,0,0,0,0,0,0,0,0,0,0,0,0,0,0,0,0,0,0,0,0,0,0,0,0,0,0,0,0,0,0,0,0,0,0,0,0,0,0,0,0],"id":4,"left_children":[1,3,5,7,9,11,13,15,17,19,21,23,25,27,29,31,33,35,37,39,41,43,45,47,49,51,53,-1,-1,55,57,59,61,63,65,67,69,71,73,75,77,79,81,-1,83,85,87,89,91,93,95,97,99,101,103,105,-1,107,-1,-1,-1,-1,-1,-1,-1,-1,-1,-1,-1,-1,-1,-1,-1,-1,-1,-1,-1,-1,-1,-1,-1,-1,-1,-1,-1,-1,-1,-1,-1,-1,-1,-1,-1,-1,-1,-1,-1,-1,-1,-1,-1,-1,-1,-1,-1,-1,-1,-1,-1],"loss_changes":[1.24634516E5,2.4115938E4,3.6362094E4,9.4605E3,1.4402602E4,1.7464047E4,1.7029406E4,6.083914E3,2.648584E3,1.7790688E4,1.4522344E3,1.3100875E4,4.743496E3,6.950914E3,3.9129434E3,3.5866367E3,2.6497188E3,1.3700996E3,3.3164282E2,3.0506055E3,5.019047E3,1.0292344E3,2.4171439E2,6.7352734E3,1.3029539E4,1.3585884E3,1.9963945E3,0E0,0E0,6.5871484E2,1.6113403E3,1.8545312E3,1.7044609E3,9.2389746E2,2.341084E3,7.1649414E2,3.9882227E2,1.3363062E2,1.4320923E2,1.1244336E3,1.3653197E2,8.970246E3,2.2644902E3,0E0,1.0015801E3,4.001161E1,4.090327E2,5.4535938E3,3.864539E3,2.8298262E3,6.5333203E3,4.857392E2,1.5059346E3,1.6286367E3,7.749446E2,4.4489648E2,0E0,5.362147E2,0E0,0E0,0E0,0E0,0E0,0E0,0E0,0E0,0E0,0E0,0E0,0E0,0E0,0E0,0E0,0E0,0E0,0E0,0E0,0E0,0E0,0E0,0E0,0E0,0E0,0E0,0E0,0E0,0E0,0E0,0E0,0E0,0E0,0E0,0E0,0E0,0E0,0E0,0E0,0E0,0E0,0E0,0E0,0E0,0E0,0E0,0E0,0E0,0E0,0E0,0E0],"parents":[2147483647,0,0,1,1,2,2,3,3,4,4,5,5,6,6,7,7,8,8,9,9,10,10,11,11,12,12,13,13,14,14,15,15,16,16,17,17,18,18,19,19,20,20,21,21,22,22,23,23,24,24,25,25,26,26,29,29,30,30,31,31,32,32,33,33,34,34,35,35,36,36,37,37,38,38,39,39,40,40,41,41,42,42,44,44,45,45,46,46,47,47,48,48,49,49,50,50,51,51,52,52,53,53,54,54,55,55,57,57],"right_children":[2,4,6,8,10,12,14,16,18,20,22,24,26,28,30,32,34,36,38,40,42,44,46,48,50,52,54,-1,-1,56,58,60,62,64,66,68,70,72,74,76,78,80,82,-1,84,86,88,90,92,94,96,98,100,102,104,106,-1,108,-1,-1,-1,-1,-1,-1,-1,-1,-1,-1,-1,-1,-1,-1,-1,-1,-1,-1,-1,-1,-1,-1,-1,-1,-1,-1,-1,-1,-1,-1,-1,-1,-1,-1,-1,-1,-1,-1,-1,-1,-1,-1,-1,-1,-1,-1,-1,-1,-1,-1,-1],"split_conditions":[1.3811182E0,3.910558E-1,4.473775E0,-2.4880543E-1,-3.2616493E-1,-3.8073277E-1,-7.8172314E-1,-5.2858794E-1,7.104655E-1,-8.9758265E-1,7.026546E-1,2.6991935E0,1.4967108E0,1.3960891E0,7.814333E-2,5.7258815E-2,-3.8563758E-1,-1.8872939E-1,-3.1453183E-1,5.1866555E-1,-3.6046988E-1,-1.1475234E0,-4.8248404E-1,-2.0895653E0,2.0718076E0,-3.4460926E-1,2.2375625E-1,3.0816652E-2,2.6017473E1,7.836766E-1,5.305402E0,-1.9553595E0,-1.6450655E-1,-9.0916324E-1,1.6907224E-1,-9.1697705E-1,1.4426404E-1,3.0201745E-1,-1.0703018E0,-1.2283154E0,-1.769104E0,-1.0087707E0,-3.447054E-1,-4.793768E0,-6.7598295E-1,1.7780082E0,-1.8645668E-1,1.0747647E0,2.7049775E0,-1.0340977E0,-2.2793412E-1,-8.314736E-2,4.0022974E0,-3.5200194E-1,6.719364E-1,-1.2375245E0,2.7444696E0,6.719364E-1,1.3839714E1,5.946996E0,2.1027265E0,2.4213202E0,4.822413E0,-9.044804E-2,1.1614794E0,2.4050736E0,1.363738E0,7.178729E-2,1.0533445E0,1.7182276E0,1.083591E0,4.5383164E-1,-1.541046E-1,2.0941886E-1,8.4695715E-1,6.7467175E0,1.7208675E1,-4.695969E-1,3.4304032E0,3.5344286E0,8.386114E0,2.6144824E0,6.5457864E0,3.4276352E0,1.9431928E0,1.5120581E-1,-7.1150446E-1,2.311381E0,3.9182326E-1,3.388928E0,2.5659487E1,6.4884973E0,1.7736685E0,2.4497328E0,9.251676E0,1.8011246E1,6.906505E0,-4.9683676E0,1.822805E-1,3.1172779E0,-2.3840187E0,1.1255144E0,6.46349E0,4.045638E0,6.92041E-1,3.4005022E0,1.5073335E1,4.6609616E0,-4.936104E-1],"split_indices":[3,0,0,1,1,1,1,2,1,2,1,4,0,4,1,3,0,0,0,5,2,2,2,1,0,1,1,0,0,2,4,1,0,0,2,0,2,2,2,2,1,1,1,0,2,0,2,0,3,1,2,2,4,1,14,2,0,14,0,0,0,0,0,0,0,0,0,0,0,0,0,0,0,0,0,0,0,0,0,0,0,0,0,0,0,0,0,0,0,0,0,0,0,0,0,0,0,0,0,0,0,0,0,0,0,0,0,0,0],"split_type":[0,0,0,0,0,0,0,0,0,0,0,0,0,0,0,0,0,0,0,0,0,0,0,0,0,0,0,0,0,0,0,0,0,0,0,0,0,0,0,0,0,0,0,0,0,0,0,0,0,0,0,0,0,0,0,0,0,0,0,0,0,0,0,0,0,0,0,0,0,0,0,0,0,0,0,0,0,0,0,0,0,0,0,0,0,0,0,0,0,0,0,0,0,0,0,0,0,0,0,0,0,0,0,0,0,0,0,0,0],"sum_hessian":[5.942E3,5.48E3,4.62E2,4.76E3,7.2E2,4.24E2,3.8E1,1.968E3,2.792E3,3.45E2,3.75E2,2E2,2.24E2,1.3E1,2.5E1,5.17E2,1.451E3,1.816E3,9.76E2,1.6E1,3.29E2,3.03E2,7.2E1,1.44E2,5.6E1,1.07E2,1.17E2,1E0,1.2E1,1.3E1,1.2E1,3.86E2,1.31E2,6.62E2,7.89E2,1.283E3,5.33E2,6.16E2,3.6E2,1.4E1,2E0,1.51E2,1.78E2,1E0,3.02E2,2.9E1,4.3E1,4E0,1.4E2,2.3E1,3.3E1,1E1,9.7E1,8.5E1,3.2E1,1.2E1,1E0,1.1E1,1E0,1.1E1,3.75E2,4.3E1,8.8E1,5.8E1,6.04E2,3.81E2,4.08E2,7.1E1,1.212E3,4.1E2,1.23E2,5.82E2,3.4E1,3.6E1,3.24E2,3E0,1.1E1,1E0,1E0,9.6E1,5.5E1,1.64E2,1.4E1,5.1E1,2.51E2,2.4E1,5E0,1.5E1,2.8E1,2E0,2E0,1.21E2,1.9E1,1.2E1,1.1E1,2.5E1,8E0,1E0,9E0,9.3E1,4E0,6E0,7.9E1,2.3E1,9E0,1E0,1.1E1,9E0,2E0],"tree_param":{"num_deleted":"0","num_feature":"17","num_nodes":"109","size_leaf_vector":"0"}},{"base_weights":[4.599315E0,3.5860775E0,1.57193165E1,2.6467085E0,5.87386E0,1.4993995E1,8.3947105E1,3.4191704E0,1.4825459E0,8.172135E0,4.1334863E0,1.4254004E1,5.798174E1,9.6428925E1,1.700993E1,3.2629375E0,1.3836763E1,4.7281265E-1,1.8672132E0,1.4310895E1,6.531368E0,3.7533805E0,7.751759E0,1.8781836E1,8.432394E0,6.987494E1,1.4868091E1,4.2376857E0,2.2219632E0,9.074101E0,2.8181152E1,-4.1730404E0,5.4893655E-1,2.2825081E0,8.026133E-1,3.530159E1,1.29709215E1,8.126337E0,4.1923566E0,4.1376524E0,1.5209279E0,1.0145328E1,4.2120323E0,4.821944E1,1.6876064E1,4.515472E0,1.0928594E1,1.1140983E0,4.586643E0,2.3989017E0,-3.2760646E0,3.543848E1,5.547412E0,3.321091E1,-3.5135746E0,8.112494E-1,-3.8493297E-1,2.760925E0,9.612518E-1,1.2912493E0,1.24244936E-1,7.5476074E0,3.8188213E1,9.1633215E0,2.0467104E1,7.0080357E0,1.4317374E1,4.4002333E0,-8.184996E0,4.335042E0,-7.474797E-1,2.2497888E0,5.2958447E-1,2.1538796E0,1.2612262E1,5.304614E0,-3.6228993E0,1.5305972E1,5.79151E1,4.6802326E1,1.5601311E1,5.2051287E0,-1.0751352E1,1.0405366E1,3.921252E1],"categories":[],"categories_nodes":[],"categories_segments":[],"categories_sizes":[],"default_left":[1,1,1,1,1,1,1,1,1,1,1,1,1,0,0,1,1,1,1,1,1,1,1,1,1,0,0,1,1,1,1,0,1,1,1,1,1,1,1,1,1,1,1,1,1,1,1,0,0,0,0,0,0,0,0,0,0,0,0,0,0,0,0,0,0,0,0,0,0,0,0,0,0,0,0,0,0,0,0,0,0,0,0,0,0],"id":5,"left_children":[1,3,5,7,9,11,13,15,17,19,21,23,25,-1,-1,27,29,31,33,35,37,39,41,43,45,-1,-1,47,49,51,53,-1,55,57,59,61,63,65,67,69,71,73,75,77,79,81,83,-1,-1,-1,-1,-1,-1,-1,-1,-1,-1,-1,-1,-1,-1,-1,-1,-1,-1,-1,-1,-1,-1,-1,-1,-1,-1,-1,-1,-1,-1,-1,-1,-1,-1,-1,-1,-1,-1],"loss_changes":[6.690464E4,1.1692594E4,2.3286898E4,3.4697168E3,6.306E3,1.482432E4,2.5372383E3,3.7340742E3,5.9843604E2,6.7758203E3,1.2141982E3,1.2625875E4,3.063168E3,0E0,0E0,2.313205E3,2.0670752E3,1.5330373E2,4.9201904E2,3.5642656E3,1.9804824E3,6.971592E2,6.774365E2,1.4445828E4,2.0430186E3,0E0,0E0,1.2821777E3,1.086709E3,2.3138408E3,1.392023E3,0E0,1.0344295E2,5.0493164E2,1.0425426E2,3.5269238E2,3.6942266E3,2.115164E3,6.046399E2,6.7726855E2,8.695984E1,9.585537E2,3.273891E2,4.2194375E3,9.074008E3,9.509155E2,1.5158438E3,0E0,0E0,0E0,0E0,0E0,0E0,0E0,0E0,0E0,0E0,0E0,0E0,0E0,0E0,0E0,0E0,0E0,0E0,0E0,0E0,0E0,0E0,0E0,0E0,0E0,0E0,0E0,0E0,0E0,0E0,0E0,0E0,0E0,0E0,0E0,0E0,0E0,0E0],"parents":[2147483647,0,0,1,1,2,2,3,3,4,4,5,5,6,6,7,7,8,8,9,9,10,10,11,11,12,12,15,15,16,16,17,17,18,18,19,19,20,20,21,21,22,22,23,23,24,24,27,27,28,28,29,29,30,30,32,32,33,33,34,34,35,35,36,36,37,37,38,38,39,39,40,40,41,41,42,42,43,43,44,44,45,45,46,46],"right_children":[2,4,6,8,10,12,14,16,18,20,22,24,26,-1,-1,28,30,32,34,36,38,40,42,44,46,-1,-1,48,50,52,54,-1,56,58,60,62,64,66,68,70,72,74,76,78,80,82,84,-1,-1,-1,-1,-1,-1,-1,-1,-1,-1,-1,-1,-1,-1,-1,-1,-1,-1,-1,-1,-1,-1,-1,-1,-1,-1,-1,-1,-1,-1,-1,-1,-1,-1,-1,-1,-1,-1],"split_conditions":[1.1841581E0,5.7258815E-2,6.608506E0,2.6159477E-1,-3.420561E-1,8.146269E0,-3.347522E-1,4.8560297E-1,-6.5596306E-1,-5.921509E-1,1.3960891E0,-3.3128083E-1,-6.2640023E-1,2.8928679E1,5.102979E0,-5.6274258E-2,9.212383E-1,2.781794E-1,1.2129676E-1,-1.1106135E0,1.7036125E-1,1.0839117E0,3.3698052E-1,-8.9758265E-1,1.3811182E0,2.0962482E1,4.4604273E0,-7.958629E-1,2.6825504E0,-1.1696861E0,8.130019E-1,-1.2519121E0,6.719364E-1,1.1088821E0,7.057964E-1,-1.3637681E-1,-9.8167825E-1,1.3960891E0,2.2414725E0,1.6573058E0,1.4029983E0,-1.570749E-1,9.802175E-1,-1.1553619E0,-1.9471209E0,2.6991935E0,5.305402E0,3.342295E-1,1.375993E0,7.1967053E-1,-9.8281944E-1,1.0631544E1,1.6642237E0,9.963274E0,-1.0540724E0,2.4337482E-1,-1.15479894E-1,8.282775E-1,2.8837556E-1,3.873748E-1,3.727348E-2,2.2642822E0,1.1456465E1,2.7489965E0,6.1401315E0,2.1024108E0,4.2952123E0,1.32007E0,-2.4554987E0,1.3005127E0,-2.2424391E-1,6.7493665E-1,1.5887535E-1,6.4616394E-1,3.7836788E0,1.5913843E0,-1.0868698E0,4.5917916E0,1.737453E1,1.4040698E1,4.680393E0,1.5615387E0,-3.225406E0,3.12161E0,1.1763757E1],"split_indices":[0,3,4,1,1,0,1,0,2,2,4,1,2,0,0,2,12,1,2,2,2,1,1,2,3,0,0,0,2,2,0,0,14,1,2,0,1,4,2,2,1,1,0,2,1,4,4,0,0,0,0,0,0,0,0,0,0,0,0,0,0,0,0,0,0,0,0,0,0,0,0,0,0,0,0,0,0,0,0,0,0,0,0,0,0],"split_type":[0,0,0,0,0,0,0,0,0,0,0,0,0,0,0,0,0,0,0,0,0,0,0,0,0,0,0,0,0,0,0,0,0,0,0,0,0,0,0,0,0,0,0,0,0,0,0,0,0,0,0,0,0,0,0,0,0,0,0,0,0,0,0,0,0,0,0,0,0,0,0,0,0,0,0,0,0,0,0,0,0,0,0,0,0],"sum_hessian":[5.942E3,5.447E3,4.95E2,3.863E3,1.584E3,4.91E2,4E0,2.321E3,1.542E3,6.81E2,9.03E2,4.84E2,7E0,3E0,1E0,2.288E3,3.3E1,4.26E2,1.116E3,1.42E2,5.39E2,8.19E2,8.4E1,2.71E2,2.13E2,5E0,2E0,1.18E3,1.108E3,2.6E1,7E0,6E0,4.2E2,8.02E2,3.14E2,7E0,1.35E2,3.19E2,2.2E2,6.98E2,1.21E2,4.9E1,3.5E1,1.5E1,2.56E2,8.4E1,1.29E2,1.19E2,1.061E3,1.074E3,3.4E1,2E0,2.4E1,6E0,1E0,3.28E2,9.2E1,5.88E2,2.14E2,1.82E2,1.32E2,1E0,6E0,9.1E1,4.4E1,2.72E2,4.7E1,2.17E2,3E0,6.71E2,2.7E1,6.9E1,5.2E1,1.2E1,3.7E1,3.1E1,4E0,4E0,1.1E1,9E0,2.47E2,8.1E1,3E0,1.28E2,1E0],"tree_param":{"num_deleted":"0","num_feature":"17","num_nodes":"85","size_leaf_vector":"0"}},{"base_weights":[3.2483191E0,2.7145436E0,1.4952049E1,2.2169573E0,6.3373084E0,1.3900919E1,6.5569305E1,3.3563564E0,1.5478691E0,3.1747E1,5.876192E0,2.0811422E1,8.514941E0,8.583029E1,2.3451881E1,6.892438E0,2.6914704E0,1.2176207E0,2.3428645E0,5.3644318E1,8.442583E0,-1.1532522E1,6.075883E0,8.259858E0,2.5571905E1,6.893257E0,1.4256192E1,4.976496E0,1.2572093E1,2.4769506E0,1.0770572E1,-4.615206E-1,1.314223E0,3.0055869E0,1.6038533E0,-5.980039E0,1.540764E1,4.6737175E0,-1.7713554E1,2.7693523E1,5.8381195E0,-2.3276167E0,2.3912907E1,2.3496578E1,5.912897E1,5.095278E0,1.4262202E1,1.8123922E1,-1.593732E0,1.242888E1,2.9348953E0,-8.577208E0,1.3601023E1,-9.491298E0,2.5705462E0,4.244592E0,1.5917074E1,7.3027533E-1,-8.4100837E-1,1.5789336E0,6.963013E-1,2.9164464E0,1.6385065E1,-1.6745678E-1,2.2405078E0,1.2400417E0,-1.02101E1,1.9486055E1,6.193344E0,1.253622E0,5.756954E0,-1.9283104E-1,-2.1179132E1,3.1418703E1,2.6712189E0,7.2313743E0,3.7367654E0,1.1836375E1,-3.0323084E1,-5.1723742E0,3.3155727E1,2.840241E1,1.215635E1,-3.614392E0,6.5377483E0,1.8918642E1,-1.3080769E0,2.3995424E1,5.0195413E0,-3.4512067E0,2.033303E0],"categories":[],"categories_nodes":[],"categories_segments":[],"categories_sizes":[],"default_left":[1,1,1,1,1,1,1,1,1,1,1,1,1,0,0,1,1,1,1,0,1,1,1,1,1,1,1,1,1,1,1,1,1,1,1,1,1,1,1,1,1,1,1,1,0,1,1,1,1,0,0,0,0,0,0,0,0,0,0,0,0,0,0,0,0,0,0,0,0,0,0,0,0,0,0,0,0,0,0,0,0,0,0,0,0,0,0,0,0,0,0],"id":6,"left_children":[1,3,5,7,9,11,13,15,17,19,21,23,25,-1,-1,27,29,31,33,-1,35,37,39,41,43,45,47,49,51,53,55,57,59,61,63,65,67,69,71,73,75,77,79,81,-1,83,85,87,89,-1,-1,-1,-1,-1,-1,-1,-1,-1,-1,-1,-1,-1,-1,-1,-1,-1,-1,-1,-1,-1,-1,-1,-1,-1,-1,-1,-1,-1,-1,-1,-1,-1,-1,-1,-1,-1,-1,-1,-1,-1,-1],"loss_changes":[3.708632E4,1.0233949E4,1.2868711E4,3.8065957E3,7.8511934E3,9.313844E3,2.2538223E3,4.328615E3,8.246914E2,5.670755E3,2.4166133E3,6.4211953E3,1.25175E3,0E0,0E0,3.1149463E3,2.6735332E3,3.6217017E2,4.477173E2,0E0,7.953189E2,8.8415857E2,3.2717617E3,5.3589004E3,4.1820234E3,1.4509888E3,1.9292852E3,3.3107764E3,1.7052236E3,1.7259424E3,1.2758774E3,5.579134E1,3.4370728E2,5.3184375E2,4.9544116E2,1.042851E2,6.721484E1,3.8972702E0,3.6023267E2,5.685625E2,1.9111309E3,8.289466E3,3.6662847E3,3.9384883E3,0E0,1.2045935E3,1.6197925E3,1.8031133E3,5.417722E1,0E0,0E0,0E0,0E0,0E0,0E0,0E0,0E0,0E0,0E0,0E0,0E0,0E0,0E0,0E0,0E0,0E0,0E0,0E0,0E0,0E0,0E0,0E0,0E0,0E0,0E0,0E0,0E0,0E0,0E0,0E0,0E0,0E0,0E0,0E0,0E0,0E0,0E0,0E0,0E0,0E0,0E0],"parents":[2147483647,0,0,1,1,2,2,3,3,4,4,5,5,6,6,7,7,8,8,9,9,10,10,11,11,12,12,15,15,16,16,17,17,18,18,20,20,21,21,22,22,23,23,24,24,25,25,26,26,27,27,28,28,29,29,30,30,31,31,32,32,33,33,34,34,35,35,36,36,37,37,38,38,39,39,40,40,41,41,42,42,43,43,45,45,46,46,47,47,48,48],"right_children":[2,4,6,8,10,12,14,16,18,20,22,24,26,-1,-1,28,30,32,34,-1,36,38,40,42,44,46,48,50,52,54,56,58,60,62,64,66,68,70,72,74,76,78,80,82,-1,84,86,88,90,-1,-1,-1,-1,-1,-1,-1,-1,-1,-1,-1,-1,-1,-1,-1,-1,-1,-1,-1,-1,-1,-1,-1,-1,-1,-1,-1,-1,-1,-1,-1,-1,-1,-1,-1,-1,-1,-1,-1,-1,-1,-1],"split_conditions":[1.9288149E0,5.395183E-1,6.608506E0,-3.4247032E-1,-1.9586265E0,-5.7756925E-1,2.5105715E-2,-6.244192E-1,-1.926363E-1,6.719364E-1,-1.863558E0,1.3811182E0,3.782252E0,2.5749088E1,7.035565E0,-1.0141222E0,-3.4490648E-1,-9.1697705E-1,3.9008242E-1,1.6093296E1,-2.4038E0,-7.7381694E-1,-1.8515162E0,-7.181438E-1,9.396479E0,7.9019576E-1,1.0080444E0,-9.519708E-1,-9.0612537E-1,-1.8515941E0,-7.512464E-2,1.3356331E-1,9.437262E-1,2.6991935E0,-5.0861025E-1,1.1294614E0,-7.645072E-1,9.536506E-1,6.840739E-1,6.719364E-1,-3.908214E-2,2.9110117E0,-1.5834494E0,-3.3179832E-1,1.7738691E1,-1.1374203E0,6.3372135E-1,5.8021235E0,2.7049775E0,3.7286642E0,8.804686E-1,-2.5731623E0,4.080307E0,-2.8473895E0,7.711639E-1,1.2733777E0,4.7751226E0,2.1908261E-1,-2.5230253E-1,4.736801E-1,2.088904E-1,8.7493396E-1,4.9155197E0,-5.0237034E-2,6.721524E-1,3.7201253E-1,-3.0630302E0,5.8458166E0,1.8580033E0,3.7608662E-1,1.7270863E0,-5.7849314E-2,-6.35374E0,9.4256115E0,8.013657E-1,2.1694124E0,1.1210296E0,3.5509126E0,-9.096926E0,-1.5517124E0,9.946718E0,8.520723E0,3.6469052E0,-1.0843177E0,1.9613246E0,5.675593E0,-3.9242306E-1,7.1986275E0,1.5058625E0,-1.035362E0,6.0999095E-1],"split_indices":[0,0,4,1,1,2,2,2,0,14,1,3,0,0,0,1,1,0,1,0,1,2,1,2,0,13,1,2,2,1,2,1,1,4,2,0,2,0,0,14,1,0,8,1,0,1,2,0,3,0,0,0,0,0,0,0,0,0,0,0,0,0,0,0,0,0,0,0,0,0,0,0,0,0,0,0,0,0,0,0,0,0,0,0,0,0,0,0,0,0,0],"split_type":[0,0,0,0,0,0,0,0,0,0,0,0,0,0,0,0,0,0,0,0,0,0,0,0,0,0,0,0,0,0,0,0,0,0,0,0,0,0,0,0,0,0,0,0,0,0,0,0,0,0,0,0,0,0,0,0,0,0,0,0,0,0,0,0,0,0,0,0,0,0,0,0,0,0,0,0,0,0,0,0,0,0,0,0,0,0,0,0,0,0,0],"sum_hessian":[5.942E3,5.684E3,2.58E2,4.999E3,6.85E2,2.54E2,4E0,1.848E3,3.151E3,1.1E1,6.74E2,1.1E2,1.44E2,2E0,2E0,2.91E2,1.557E3,2.228E3,9.23E2,5E0,6E0,7E0,6.67E2,3.1E1,7.9E1,1.14E2,3E1,2.19E2,7.2E1,1.518E3,3.9E1,1.21E2,2.107E3,4.85E2,4.38E2,2E0,4E0,2E0,5E0,6E0,6.61E2,1.9E1,1.2E1,7.6E1,3E0,9.3E1,2.1E1,2.4E1,6E0,4.6E1,1.73E2,3E0,6.9E1,1.1E1,1.507E3,1.8E1,2.1E1,2.9E1,9.2E1,1.474E3,6.33E2,4.83E2,2E0,1.16E2,3.22E2,1E0,1E0,2E0,2E0,1E0,1E0,1E0,4E0,5E0,1E0,3.96E2,2.65E2,1.3E1,6E0,3E0,9E0,5.2E1,2.4E1,1.3E1,8E1,1.6E1,5E0,1.6E1,8E0,4E0,2E0],"tree_param":{"num_deleted":"0","num_feature":"17","num_nodes":"91","size_leaf_vector":"0"}},{"base_weights":[2.295268E0,1.7151798E0,8.471551E0,1.2208651E0,2.9375434E0,7.246257E0,2.4403305E1,1.2355778E0,-2.7858505E1,2.7814918E0,1.4845656E1,6.9121437E0,5.750933E1,4.4485123E1,1.7076889E1,1.2066135E1,1.2015787E0,3.7290618E0,1.2539775E0,2.8651491E1,3.2541425E0,2.7311466E1,6.1381817E0,1.3599125E1,7.266487E1,5.1813572E1,-7.0712433E0,-2.3930191E1,1.9481972E1,-2.8925323E0,1.737375E1,9.9550134E-1,2.3326347E0,5.2105994E0,2.3244162E0,1.4565214E0,-4.0691605E0,3.2984383E1,-3.0058136E0,-5.1634836E0,8.108391E0,5.7003136E0,3.8581158E1,-1.6461159E1,6.732473E0,1.14586525E1,3.7105026E1,-5.465318E0,2.4129124E0,1.8817242E1,2.9129124E0,9.562687E-1,7.0123377E0,2.495394E0,-6.520462E0,1.8412102E1,4.541723E0,2.9627164E-3,2.9482617E0,1.6772377E0,-2.320481E0,-1.0835057E1,-2.850818E0,3.4892616E1,9.81337E0,5.2200775E0,-9.064393E0,1.2712129E1,3.2662058E-1,2.0851686E1,-4.5305734E0,4.3407585E1,-4.841572E0,-4.3616104E-1,-2.7845276E1,1.0072834E1,4.988516E0,1.4422512E1,-3.1742936E-1,4.6975216E1,4.996302E0],"categories":[],"categories_nodes":[],"categories_segments":[],"categories_sizes":[],"default_left":[1,1,1,1,1,1,1,1,0,1,1,1,1,1,1,1,1,1,1,1,1,1,1,0,0,0,0,0,1,1,1,1,1,1,1,1,1,1,0,1,1,1,1,1,1,1,1,0,0,0,0,0,0,0,0,0,0,0,0,0,0,0,0,0,0,0,0,0,0,0,0,0,0,0,0,0,0,0,0,0,0],"id":7,"left_children":[1,3,5,7,9,11,13,15,-1,17,19,21,23,25,27,29,31,33,35,37,39,41,43,-1,-1,-1,-1,-1,45,47,49,51,53,55,57,59,61,63,-1,65,67,69,71,73,75,77,79,-1,-1,-1,-1,-1,-1,-1,-1,-1,-1,-1,-1,-1,-1,-1,-1,-1,-1,-1,-1,-1,-1,-1,-1,-1,-1,-1,-1,-1,-1,-1,-1,-1,-1],"loss_changes":[2.1277986E4,3.2798125E3,9.778922E3,1.6905669E3,2.8650586E3,7.579424E3,4.5369316E3,1.4105464E3,0E0,2.2315977E3,3.107374E3,7.3002207E3,1.00826953E3,3.7668418E3,3.2277207E3,1.0029923E3,8.9715234E2,1.9711152E3,6.452808E2,1.3336543E3,5.322025E2,3.9204414E3,6.2486055E3,0E0,0E0,0E0,0E0,0E0,3.392502E3,6.778642E1,1.3305396E2,7.6425415E2,8.721802E2,4.004752E3,7.110718E2,4.8073767E2,1.5046118E2,1.1311523E1,0E0,2.498435E2,2.8244977E2,1.179554E3,2.515503E3,2.1770205E3,2.5479004E3,7.0263135E2,2.3006514E3,0E0,0E0,0E0,0E0,0E0,0E0,0E0,0E0,0E0,0E0,0E0,0E0,0E0,0E0,0E0,0E0,0E0,0E0,0E0,0E0,0E0,0E0,0E0,0E0,0E0,0E0,0E0,0E0,0E0,0E0,0E0,0E0,0E0,0E0],"parents":[2147483647,0,0,1,1,2,2,3,3,4,4,5,5,6,6,7,7,9,9,10,10,11,11,12,12,13,13,14,14,15,15,16,16,17,17,18,18,19,19,20,20,21,21,22,22,28,28,29,29,30,30,31,31,32,32,33,33,34,34,35,35,36,36,37,37,39,39,40,40,41,41,42,42,43,43,44,44,45,45,46,46],"right_children":[2,4,6,8,10,12,14,16,-1,18,20,22,24,26,28,30,32,34,36,38,40,42,44,-1,-1,-1,-1,-1,46,48,50,52,54,56,58,60,62,64,-1,66,68,70,72,74,76,78,80,-1,-1,-1,-1,-1,-1,-1,-1,-1,-1,-1,-1,-1,-1,-1,-1,-1,-1,-1,-1,-1,-1,-1,-1,-1,-1,-1,-1,-1,-1,-1,-1,-1,-1],"split_conditions":[1.3960891E0,5.7258815E-2,4.473775E0,7.130472E0,3.184495E0,8.662345E0,-8.9748824E-1,-1.9553595E0,-8.357552E0,-4.2132847E-2,-3.7398696E-1,-1.85552E0,1.5170267E0,2.831255E0,-8.5416603E-1,-2.3074594E0,9.212383E-1,-2.4880543E-1,1.406852E0,6.2068796E0,4.4047922E-2,-2.5219756E-1,-1.7244415E0,4.0797377E0,2.1799461E1,1.5544072E1,-2.1213732E0,-7.1790576E0,6.544436E0,9.2984885E-2,9.2984885E-2,6.067171E-1,7.9346734E-1,-8.9966416E-1,-7.617506E-1,1.6573058E0,-1.1716003E0,1.8417759E-1,-9.017441E-1,9.2984885E-2,-5.145432E-2,-2.2142336E0,-7.7381694E-1,1.3811182E0,-7.4361455E-1,5.022212E-1,7.9019576E-1,-1.6395955E0,7.2387373E-1,5.6451726E0,8.738738E-1,2.8688064E-1,2.1037014E0,7.4861825E-1,-1.9561387E0,5.5236306E0,1.3625169E0,8.88815E-4,8.8447857E-1,5.031713E-1,-6.9614434E-1,-3.2505174E0,-8.552454E-1,1.0467785E1,2.944011E0,1.5660233E0,-2.719318E0,3.8136387E0,9.798618E-2,6.255506E0,-1.3591721E0,1.3022276E1,-1.4524716E0,-1.3084832E-1,-8.353583E0,3.0218503E0,1.4965549E0,4.3267536E0,-9.522881E-2,1.4092566E1,1.4988906E0],"split_indices":[4,3,0,0,0,3,1,1,0,2,1,1,0,5,1,1,12,1,0,0,1,5,1,0,0,0,0,0,0,4,4,0,0,2,2,2,1,2,0,4,2,1,2,3,1,1,13,0,0,0,0,0,0,0,0,0,0,0,0,0,0,0,0,0,0,0,0,0,0,0,0,0,0,0,0,0,0,0,0,0,0],"split_type":[0,0,0,0,0,0,0,0,0,0,0,0,0,0,0,0,0,0,0,0,0,0,0,0,0,0,0,0,0,0,0,0,0,0,0,0,0,0,0,0,0,0,0,0,0,0,0,0,0,0,0,0,0,0,0,0,0,0,0,0,0,0,0,0,0,0,0,0,0,0,0,0,0,0,0,0,0,0,0,0,0],"sum_hessian":[5.942E3,5.433E3,5.09E2,3.87E3,1.563E3,4.74E2,3.5E1,3.869E3,1E0,1.544E3,1.9E1,4.72E2,2E0,8E0,2.7E1,1.1E1,3.858E3,9.52E2,5.92E2,8E0,1.1E1,1.6E1,4.56E2,1E0,1E0,7E0,1E0,1E0,2.6E1,3E0,8E0,3.265E3,5.93E2,4.62E2,4.9E2,5.71E2,2.1E1,7E0,1E0,4E0,7E0,6E0,1E1,1.1E1,4.45E2,1.9E1,7E0,2E0,1E0,7E0,1E0,3.245E3,2E1,5.83E2,1E1,2.1E1,4.41E2,1.04E2,3.86E2,5.4E2,3.1E1,2E0,1.9E1,6E0,1E0,1E0,3E0,4E0,3E0,2E0,4E0,9E0,1E0,5E0,6E0,1.51E2,2.94E2,1.5E1,4E0,5E0,2E0],"tree_param":{"num_deleted":"0","num_feature":"17","num_nodes":"81","size_leaf_vector":"0"}},{"base_weights":[1.6204207E0,1.393242E0,1.0506281E1,1.1410763E0,4.400923E0,1.6830942E1,4.455866E0,9.84051E0,1.0983778E0,4.1843204E0,3.5135487E1,9.218631E0,2.3782625E1,3.5520158E0,2.0063122E1,1.2403854E1,-7.358845E0,4.4989115E-1,1.5990567E0,2.582236E1,3.8804371E0,2.760956E1,-2.3766572E0,3.9140842E1,1.5779501E1,5.6905723E0,-5.2390103E0,5.9004974E-1,2.6357462E1,-2.2376957E0,1.6595268E1,-1.034676E1,8.024492E-1,-8.776892E0,4.896048E-1,2.3964727E0,1.060632E0,4.0327663E1,-2.125501E0,-6.504198E0,4.7639303E0,2.3798046E0,3.4274055E1,1.9465718E0,-1.0726033E1,7.288362E1,1.3158997E1,-2.6730022E0,2.030024E1,1.898776E0,1.0254664E1,-9.211674E0,4.54865E0,-8.17344E0,6.4225287E0,2.0557842E1,9.072319E0,-8.203042E-1,-1.06635E1,-1.1681223E0,6.377341E-1,1.0149467E1,1.983143E0,1.4103341E0,2.4312516E-1,-7.0533257E0,3.8650742E0,1.9388477E1,-1.2529872E1,6.443477E0,6.449989E-1,8.194305E0,-2.2897975E0,1.8967972E0,3.73221E1,-1.0285596E1,5.5605793E0,-1.3904541E1,-7.936732E-1,8.04993E1,2.1210472E1,-2.2405434E0,1.56790085E1,4.9286613E0,-2.034066E1,2.3411165E1,1.226016E0,-2.777351E0,1.1928618E1,1.2759834E1,-6.400674E-1,-1.3765369E1,-3.1226988E0,6.0497665E-1,5.383324E0],"categories":[],"categories_nodes":[],"categories_segments":[],"categories_sizes":[],"default_left":[1,1,1,1,1,1,1,1,1,1,0,1,1,1,1,1,1,1,1,1,1,1,1,1,1,1,1,0,0,1,1,0,0,1,1,1,1,0,1,1,1,1,1,1,1,1,1,1,1,1,1,1,1,0,0,0,0,0,0,0,0,0,0,0,0,0,0,0,0,0,0,0,0,0,0,0,0,0,0,0,0,0,0,0,0,0,0,0,0,0,0,0,0,0,0],"id":8,"left_children":[1,3,5,7,9,11,13,15,17,19,-1,21,23,25,27,29,31,33,35,37,39,41,43,45,47,49,51,-1,-1,53,55,-1,-1,57,59,61,63,-1,65,67,69,71,73,75,77,79,81,83,85,87,89,91,93,-1,-1,-1,-1,-1,-1,-1,-1,-1,-1,-1,-1,-1,-1,-1,-1,-1,-1,-1,-1,-1,-1,-1,-1,-1,-1,-1,-1,-1,-1,-1,-1,-1,-1,-1,-1,-1,-1,-1,-1,-1,-1],"loss_changes":[1.1982364E4,4.3908613E3,5.588494E3,1.9760889E3,2.8353965E3,3.5908809E3,1.0149448E3,1.2375625E3,1.727896E3,2.8324443E3,0E0,7.742551E3,3.9301816E3,1.4210209E3,4.7472827E2,1.448617E3,1.0584375E2,8.547793E2,1.2872202E3,2.5180696E3,4.0770537E3,2.2724443E3,8.5109314E2,9.561322E3,2.2231567E3,1.01889526E3,6.2514685E2,0E0,0E0,3.609234E2,3.5007764E2,0E0,0E0,1.413623E2,5.6847504E2,3.8573682E3,5.128185E2,0E0,1.1582314E2,5.7036636E3,2.8114443E3,1.27368935E2,1.01476953E3,7.6450824E2,2.4152502E2,2.6019922E2,3.455857E2,9.060738E2,1.2174053E3,1.6277578E3,7.450823E2,2.6201556E2,1.3201622E1,0E0,0E0,0E0,0E0,0E0,0E0,0E0,0E0,0E0,0E0,0E0,0E0,0E0,0E0,0E0,0E0,0E0,0E0,0E0,0E0,0E0,0E0,0E0,0E0,0E0,0E0,0E0,0E0,0E0,0E0,0E0,0E0,0E0,0E0,0E0,0E0,0E0,0E0,0E0,0E0,0E0,0E0],"parents":[2147483647,0,0,1,1,2,2,3,3,4,4,5,5,6,6,7,7,8,8,9,9,11,11,12,12,13,13,14,14,15,15,16,16,17,17,18,18,19,19,20,20,21,21,22,22,23,23,24,24,25,25,26,26,29,29,30,30,33,33,34,34,35,35,36,36,38,38,39,39,40,40,41,41,42,42,43,43,44,44,45,45,46,46,47,47,48,48,49,49,50,50,51,51,52,52],"right_children":[2,4,6,8,10,12,14,16,18,20,-1,22,24,26,28,30,32,34,36,38,40,42,44,46,48,50,52,-1,-1,54,56,-1,-1,58,60,62,64,-1,66,68,70,72,74,76,78,80,82,84,86,88,90,92,94,-1,-1,-1,-1,-1,-1,-1,-1,-1,-1,-1,-1,-1,-1,-1,-1,-1,-1,-1,-1,-1,-1,-1,-1,-1,-1,-1,-1,-1,-1,-1,-1,-1,-1,-1,-1,-1,-1,-1,-1,-1,-1],"split_conditions":[2.6991935E0,9.8725E-1,-4.3871766E-1,-1.9586265E0,7.989992E0,-1.1372771E0,5.305402E0,-6.848225E-1,-3.8563758E-1,-1.9586265E0,1.0540647E1,-7.6847184E-1,-9.086795E-1,2.2527573E-1,1.8952155E0,-9.09286E-1,1.5273437E-1,-1.8902149E0,-3.3949834E-1,-7.096958E-1,-1.4723268E0,2.5281343E0,-5.1440895E-1,-3.9511722E-1,-8.153286E-1,-1.3644895E-1,4.028837E0,1.7701493E-1,7.907239E0,9.212383E-1,6.719364E-1,-3.104028E0,2.4073477E-1,-7.4813133E-1,-9.1697705E-1,-8.81854E-1,1.13908954E-1,1.20983E1,1.6217318E0,-9.376762E-1,6.1237097E-2,-1.141751E0,-1.1879987E0,-1.630487E0,2.060392E0,4.1612225E0,-1.5834494E0,1.1669704E0,3.2185137E-1,3.833042E0,4.028837E0,-2.1008748E-1,1.3873174E0,-2.452032E0,1.9267586E0,6.167353E0,2.721696E0,-2.4609128E-1,-3.1990502E0,-3.504367E-1,1.9132024E-1,3.0448403E0,5.949429E-1,4.2310026E-1,7.293755E-2,-2.1159978E0,1.1595223E0,5.8165436E0,-3.7589617E0,1.9330432E0,1.9349968E-1,2.4582918E0,-6.869393E-1,5.6903917E-1,1.11966305E1,-3.0856788E0,1.6681739E0,-4.1713624E0,-2.3810197E-1,2.414979E1,6.363142E0,-6.72163E-1,4.703703E0,1.4785985E0,-6.102198E0,7.02335E0,3.6780483E-1,-8.332053E-1,3.5785856E0,3.8279505E0,-1.9202022E-1,-4.129611E0,-9.3680966E-1,1.81493E-1,1.6149973E0],"split_indices":[4,0,1,1,0,1,4,2,0,1,0,2,1,1,0,2,0,1,1,2,1,0,2,2,1,1,3,0,0,12,14,0,0,2,0,2,2,0,0,2,2,2,2,1,5,0,8,10,2,0,3,2,0,0,0,0,0,0,0,0,0,0,0,0,0,0,0,0,0,0,0,0,0,0,0,0,0,0,0,0,0,0,0,0,0,0,0,0,0,0,0,0,0,0,0],"split_type":[0,0,0,0,0,0,0,0,0,0,0,0,0,0,0,0,0,0,0,0,0,0,0,0,0,0,0,0,0,0,0,0,0,0,0,0,0,0,0,0,0,0,0,0,0,0,0,0,0,0,0,0,0,0,0,0,0,0,0,0,0,0,0,0,0,0,0,0,0,0,0,0,0,0,0,0,0,0,0,0,0,0,0,0,0,0,0,0,0,0,0,0,0,0,0],"sum_hessian":[5.942E3,5.795E3,1.47E2,5.348E3,4.47E2,7.1E1,7.6E1,2.5E1,5.323E3,4.45E2,2E0,3.5E1,3.6E1,7.3E1,3E0,2.2E1,3E0,2.32E3,3.003E3,5E0,4.4E2,1.3E1,2.2E1,1.1E1,2.5E1,5.9E1,1.4E1,1E0,2E0,5E0,1.7E1,2E0,1E0,9E0,2.311E3,1.209E3,1.794E3,3E0,2E0,3.4E1,4.06E2,3E0,1E1,1.5E1,7E0,4E0,7E0,5E0,2E1,3.3E1,2.6E1,1E1,4E0,3E0,2E0,1E1,7E0,2E0,7E0,1.89E2,2.122E3,6E1,1.149E3,1.256E3,5.38E2,1E0,1E0,6E0,2.8E1,2.88E2,1.18E2,1E0,2E0,1E0,9E0,3E0,1.2E1,5E0,2E0,3E0,1E0,1E0,6E0,4E0,1E0,1.7E1,3E0,2.3E1,1E1,2.1E1,5E0,5E0,5E0,1E0,3E0],"tree_param":{"num_deleted":"0","num_feature":"17","num_nodes":"95","size_leaf_vector":"0"}},{"base_weights":[1.1491214E0,8.3667463E-1,4.845389E0,8.233518E0,7.9854697E-1,4.0101156E0,1.3823483E1,1.0866281E1,-6.0504503E0,-7.0229297E0,8.286266E-1,3.756084E0,3.849188E1,2.000406E1,5.501474E0,1.3782218E0,1.3952399E1,-9.205719E0,3.2853127E0,-7.793454E0,4.193779E0,1.8902769E0,5.7422256E-1,2.3968088E1,3.5059261E0,8.047581E0,4.969024E1,2.4885382E1,8.351073E0,1.2446545E1,-4.9621236E-2,6.619438E0,-5.9855396E-1,3.5073776E0,1.5807578E1,-9.107469E0,-3.2095091E0,8.192436E0,1.4523958E0,8.0341274E-1,-2.3995063E-1,1.1221504E-1,3.98346E1,4.588822E0,7.694704E-1,3.1257538E1,5.889563E0,-3.2265537E0,2.8722635E1,2.131128E1,5.939754E0,-1.7926372E0,8.690269E0,-1.8634167E0,1.2874476E0,5.0816383E0,-6.0770226E-1,1.701004E1,5.327713E0,-4.384111E0,1.3317499E0,5.138203E0,2.3551805E1,-1.2958987E0,2.7563791E0,4.4287E-1,1.4303274E0,-1.52714E-1,-4.150018E0,6.820822E-1,-5.137596E-1,4.051292E0,3.5492847E1,-5.548192E0,2.3246706E0,3.458381E1,-1.0025864E0,2.590541E1,-1.6089472E1,3.014665E0,-7.100829E0,8.337641E-1,1.0767822E1,-4.443192E0,3.293993E0],"categories":[],"categories_nodes":[],"categories_segments":[],"categories_sizes":[],"default_left":[1,1,1,1,1,1,1,1,1,1,1,1,1,1,1,1,1,0,0,1,0,1,1,1,1,0,0,1,1,1,1,0,1,1,1,0,1,1,1,1,1,1,0,1,1,1,1,1,0,0,1,1,0,0,0,0,0,0,0,0,0,0,0,0,0,0,0,0,0,0,0,0,0,0,0,0,0,0,0,0,0,0,0,0,0],"id":9,"left_children":[1,3,5,7,9,11,13,15,17,19,21,23,25,27,29,31,33,-1,-1,35,-1,37,39,41,43,-1,-1,45,47,49,51,-1,53,55,57,-1,59,61,63,65,67,69,-1,71,73,75,77,79,-1,-1,81,83,-1,-1,-1,-1,-1,-1,-1,-1,-1,-1,-1,-1,-1,-1,-1,-1,-1,-1,-1,-1,-1,-1,-1,-1,-1,-1,-1,-1,-1,-1,-1,-1,-1],"loss_changes":[6.859439E3,1.5392004E3,3.4166787E3,1.1187224E3,1.2889646E3,3.578192E3,1.8959062E3,6.83521E2,1.7752786E2,2.1418164E2,1.466573E3,2.0547373E3,6.228926E2,1.043584E3,6.945672E2,7.648706E1,2.9334985E2,0E0,0E0,9.123682E1,0E0,2.8856775E3,8.1843604E2,1.8880774E3,1.2380908E3,0E0,0E0,1.6315723E3,1.97951E3,3.34864E2,1.8314996E2,0E0,1.671225E1,2.9000957E1,9.83999E1,0E0,3.7843575E1,3.0689404E3,3.5263787E3,7.728396E2,3.281877E2,1.4205935E0,0E0,4.8397627E3,1.1919253E3,1.2150381E3,2.6164495E3,1.6648784E2,0E0,0E0,1.3893456E2,1.4945976E2,0E0,0E0,0E0,0E0,0E0,0E0,0E0,0E0,0E0,0E0,0E0,0E0,0E0,0E0,0E0,0E0,0E0,0E0,0E0,0E0,0E0,0E0,0E0,0E0,0E0,0E0,0E0,0E0,0E0,0E0,0E0,0E0,0E0],"parents":[2147483647,0,0,1,1,2,2,3,3,4,4,5,5,6,6,7,7,8,8,9,9,10,10,11,11,12,12,13,13,14,14,15,15,16,16,19,19,21,21,22,22,23,23,24,24,27,27,28,28,29,29,30,30,32,32,33,33,34,34,36,36,37,37,38,38,39,39,40,40,41,41,43,43,44,44,45,45,46,46,47,47,50,50,51,51],"right_children":[2,4,6,8,10,12,14,16,18,20,22,24,26,28,30,32,34,-1,-1,36,-1,38,40,42,44,-1,-1,46,48,50,52,-1,54,56,58,-1,60,62,64,66,68,70,-1,72,74,76,78,80,-1,-1,82,84,-1,-1,-1,-1,-1,-1,-1,-1,-1,-1,-1,-1,-1,-1,-1,-1,-1,-1,-1,-1,-1,-1,-1,-1,-1,-1,-1,-1,-1,-1,-1,-1,-1],"split_conditions":[1.3811182E0,-1.9553576E0,4.473775E0,-6.848225E-1,-1.8902149E0,8.662345E0,-6.1729383E-1,-2.2222853E0,1.6217318E0,1.2895287E0,-7.891153E-1,-2.2142336E0,1.5170267E0,-1.2618892E-1,5.8021235E0,-9.885302E-1,-3.3172223E-1,-2.761716E0,9.8559386E-1,-1.8996283E0,1.2581338E0,-9.057995E-1,6.719364E-1,1.3091792E0,6.1237097E-2,2.4142742E0,1.4907072E1,1.1669704E0,9.212383E-1,-9.060671E-2,6.608506E0,1.9858315E0,9.2984885E-2,9.2984885E-2,-1.9586265E0,-2.7322407E0,7.9019576E-1,5.6686664E-1,-1.2853045E0,-1.71539E-1,1.2833936E0,8.169088E-1,1.195038E1,4.425719E-2,3.1757453E-1,5.3526964E0,-7.660016E-1,-9.141384E-1,8.616791E0,6.393384E0,5.09888E0,3.2166865E0,2.607081E0,-5.5902505E-1,3.8623428E-1,1.5244915E0,-1.8231069E-1,5.103012E0,1.5983139E0,-1.3152333E0,3.99525E-1,1.541461E0,7.0655417E0,-3.8876963E-1,8.269138E-1,1.32861E-1,4.2909825E-1,-4.58142E-2,-1.2450055E0,2.0462467E-1,-1.541279E-1,1.2153876E0,1.0647855E1,-1.6644577E0,6.9740117E-1,1.0375143E1,-3.0077592E-1,7.7716236E0,-4.826842E0,9.043995E-1,-2.1302488E0,2.5012922E-1,3.230347E0,-1.3329576E0,9.881979E-1],"split_indices":[3,1,0,2,1,3,2,1,0,5,1,1,0,1,0,2,0,0,0,1,0,2,14,0,2,0,0,10,12,1,4,0,4,4,1,0,13,0,1,0,0,0,0,2,2,3,2,2,0,0,0,5,0,0,0,0,0,0,0,0,0,0,0,0,0,0,0,0,0,0,0,0,0,0,0,0,0,0,0,0,0,0,0,0,0],"split_type":[0,0,0,0,0,0,0,0,0,0,0,0,0,0,0,0,0,0,0,0,0,0,0,0,0,0,0,0,0,0,0,0,0,0,0,0,0,0,0,0,0,0,0,0,0,0,0,0,0,0,0,0,0,0,0,0,0,0,0,0,0,0,0,0,0,0,0,0,0,0,0,0,0,0,0,0,0,0,0,0,0,0,0,0,0],"sum_hessian":[5.942E3,5.48E3,4.62E2,2.7E1,5.453E3,4.24E2,3.8E1,2.3E1,4E0,2E1,5.433E3,4.22E2,2E0,2.1E1,1.7E1,6E0,1.7E1,3E0,1E0,1.9E1,1E0,1.049E3,4.384E3,4E0,4.18E2,1E0,1E0,1.4E1,7E0,7E0,1E1,1E0,5E0,3E0,1.4E1,1.4E1,5E0,6.7E1,9.82E2,3.421E3,9.63E2,2E0,2E0,2.99E2,1.19E2,1E1,4E0,5E0,2E0,2E0,5E0,9E0,1E0,3E0,2E0,2E0,1E0,1.2E1,2E0,4E0,1E0,5.7E1,1E1,3.16E2,6.66E2,2.173E3,1.248E3,9.43E2,2E1,1E0,1E0,2.95E2,4E0,2.3E1,9.6E1,9E0,1E0,2E0,2E0,2E0,3E0,3E0,2E0,6E0,3E0],"tree_param":{"num_deleted":"0","num_feature":"17","num_nodes":"85","size_leaf_vector":"0"}},{"base_weights":[8.189857E-1,6.509606E-1,5.0665455E0,7.4140577E0,6.11595E-1,4.5143757E1,4.1410832E0,3.4274812E0,1.6240435E1,9.550556E-1,-6.258613E-2,5.931305E1,-5.7667074E0,3.5739524E0,2.8039776E1,4.781371E0,-4.5373125E0,2.5572567E1,1.7937905E0,-3.086667E-1,1.2415614E0,7.110884E-3,-9.551844E0,1.5862194E0,7.5826025E0,3.788177E1,8.851189E0,5.937457E0,-9.170174E0,-6.436263E0,5.797701E-1,2.857009E1,5.2924767E0,-3.367443E0,6.357094E0,-1.5315269E-1,-1.2179833E1,4.731902E0,9.9286157E-1,-9.953408E0,4.3784488E-2,-1.8500011E1,-2.5250826E0,3.2123368E0,-6.105032E0,1.5872097E1,5.9895854E0,-1.3264227E0,7.2973433E0,-4.366951E-1,-4.6144695E0,1.4248189E0,-8.2910913E-1,-1.4091681E1,-3.6589127E0,1.6666604E0,8.834967E0,-3.7419868E0,1.1564218E0,-2.2015626E0,-1.0878455E1,2.0895412E0,-1.6746174E-1,-7.9450736E0,-2.6406593E1,3.599846E0,-4.7893257E0,1.1285915E0,8.797935E0,-2.2089943E1,-2.0506105E-1,-2.1605862E1,2.178048E1,4.9339967E0,1.7036497E1],"categories":[],"categories_nodes":[],"categories_segments":[],"categories_sizes":[],"default_left":[1,1,1,1,1,1,1,1,1,1,1,0,0,1,1,1,1,1,1,1,1,1,1,1,1,0,0,1,0,0,0,0,0,1,0,1,1,1,1,1,1,1,1,1,1,1,1,0,0,0,0,0,0,0,0,0,0,0,0,0,0,0,0,0,0,0,0,0,0,0,0,0,0,0,0],"id":10,"left_children":[1,3,5,7,9,11,13,15,17,19,21,-1,-1,23,25,27,29,31,33,35,37,39,41,43,45,-1,-1,47,-1,-1,-1,-1,-1,49,-1,51,53,55,57,59,61,63,65,67,69,71,73,-1,-1,-1,-1,-1,-1,-1,-1,-1,-1,-1,-1,-1,-1,-1,-1,-1,-1,-1,-1,-1,-1,-1,-1,-1,-1,-1,-1],"loss_changes":[4.238201E3,1.5177905E3,8.195383E3,1.1055082E3,1.3166792E3,3.9488672E3,2.9087056E3,2.804975E2,1.3023081E3,1.3642776E3,1.2699039E3,0E0,0E0,1.7250239E3,6.089712E2,3.9316046E2,4.2599907E1,2.1353345E2,1.3916852E2,1.2848894E3,2.6610747E3,6.970402E2,8.3355884E2,1.8581223E3,8.5571484E2,0E0,0E0,2.0724036E2,0E0,0E0,0E0,0E0,0E0,8.949047E0,0E0,7.360964E2,9.505603E1,2.5509595E3,2.225401E3,2.6246094E1,8.21883E2,2.909187E2,1.4205579E2,1.4100242E3,2.4475437E3,2.9063613E3,6.389238E2,0E0,0E0,0E0,0E0,0E0,0E0,0E0,0E0,0E0,0E0,0E0,0E0,0E0,0E0,0E0,0E0,0E0,0E0,0E0,0E0,0E0,0E0,0E0,0E0,0E0,0E0,0E0,0E0],"parents":[2147483647,0,0,1,1,2,2,3,3,4,4,5,5,6,6,7,7,8,8,9,9,10,10,13,13,14,14,15,15,16,16,17,17,18,18,19,19,20,20,21,21,22,22,23,23,24,24,27,27,33,33,35,35,36,36,37,37,38,38,39,39,40,40,41,41,42,42,43,43,44,44,45,45,46,46],"right_children":[2,4,6,8,10,12,14,16,18,20,22,-1,-1,24,26,28,30,32,34,36,38,40,42,44,46,-1,-1,48,-1,-1,-1,-1,-1,50,-1,52,54,56,58,60,62,64,66,68,70,72,74,-1,-1,-1,-1,-1,-1,-1,-1,-1,-1,-1,-1,-1,-1,-1,-1,-1,-1,-1,-1,-1,-1,-1,-1,-1,-1,-1,-1],"split_conditions":[2.0757146E0,-1.9553576E0,2.1413507E0,7.8956044E-1,6.265275E-2,7.5017273E-1,6.608506E0,-6.848225E-1,6.719364E-1,-7.617506E-1,2.7049775E0,1.7793915E1,-1.7300123E0,3.782252E0,2.5105715E-2,1.3811182E0,1.5273437E-1,-1.995786E0,1.6217318E0,1.7780082E0,-6.7617345E-1,-1.182518E0,6.11773E-1,3.270447E0,-1.327526E0,1.13645315E1,2.6553566E0,-2.3074594E0,-2.7510521E0,-1.930879E0,1.7393103E-1,8.571027E0,1.587743E0,1.191972E0,1.9071282E0,-1.6699167E-1,1.9811673E0,9.2984885E-2,-1.4923053E0,-4.176742E-1,-9.639268E-1,-7.5986636E-1,8.6501426E-1,2.901635E0,-6.6450787E-1,5.7258815E-2,9.249579E0,-3.9792684E-1,2.189203E0,-1.3100854E-1,-1.3843409E0,4.2744568E-1,-2.4873275E-1,-4.2275043E0,-1.0976739E0,4.9999815E-1,2.65049E0,-1.122596E0,3.4692654E-1,-6.604688E-1,-3.2635367E0,6.268624E-1,-5.0238524E-2,-2.3835223E0,-7.9219785E0,1.0799538E0,-1.4367977E0,3.3857748E-1,2.6393805E0,-6.626983E0,-6.1518315E-2,-6.4817586E0,6.534144E0,1.4801991E0,5.1109495E0],"split_indices":[0,1,0,0,2,1,4,2,14,2,3,0,0,0,2,3,0,1,0,0,2,1,2,0,1,0,0,1,0,0,0,0,0,0,0,1,0,4,1,0,1,1,2,0,2,3,0,0,0,0,0,0,0,0,0,0,0,0,0,0,0,0,0,0,0,0,0,0,0,0,0,0,0,0,0],"split_type":[0,0,0,0,0,0,0,0,0,0,0,0,0,0,0,0,0,0,0,0,0,0,0,0,0,0,0,0,0,0,0,0,0,0,0,0,0,0,0,0,0,0,0,0,0,0,0,0,0,0,0,0,0,0,0,0,0,0,0,0,0,0,0,0,0,0,0,0,0,0,0,0,0,0,0],"sum_hessian":[5.942E3,5.717E3,2.25E2,3.2E1,5.685E3,4E0,2.21E2,2.3E1,9E0,3.766E3,1.919E3,3E0,1E0,2.17E2,4E0,2E1,3E0,5E0,4E0,6.96E2,3.07E3,1.906E3,1.3E1,1.46E2,7.1E1,2E0,2E0,1.9E1,1E0,2E0,1E0,4E0,1E0,2E0,2E0,6.88E2,8E0,2.03E2,2.867E3,6E0,1.9E3,5E0,8E0,1.21E2,2.5E1,1E1,6.1E1,3E0,1.6E1,1E0,1E0,2.06E2,4.82E2,6E0,2E0,1.17E2,8.6E1,9.5E1,2.772E3,1E0,5E0,1.77E2,1.723E3,3E0,2E0,2E0,6E0,8.9E1,3.2E1,6E0,1.9E1,1E0,9E0,5.7E1,4E0],"tree_param":{"num_deleted":"0","num_feature":"17","num_nodes":"75","size_leaf_vector":"0"}},{"base_weights":[5.773401E-1,3.727512E-1,2.7560828E0,8.0031437E-1,1.4853544E-2,1.7232698E0,6.9214025E0,-3.3018595E-1,1.2216151E0,1.2020448E-1,-1.6824176E0,1.2322829E0,7.2950816E0,1.9470423E1,1.8413609E0,-2.817744E0,-3.67418E-2,2.314411E0,5.378869E-1,-2.155393E-2,1.3177757E0,-7.216058E0,-9.932461E-1,-2.1411493E0,2.4369814E0,1.1499192E1,-3.5242925E0,6.285953E0,3.521393E1,-8.198511E0,5.035581E0,-3.9332035E0,6.8517566E-1,2.4500387E0,-3.058855E-1,6.099023E-1,3.353102E0,2.0208636E-1,2.1441298E0,1.2179656E-1,-1.4125149E0,-9.3362635E-1,1.7056483E0,-3.3016953E0,-8.039775E0,-8.1304586E-1,-4.6870446E0,1.2152576E1,-3.5161753E0,9.159223E0,1.1051009E0,7.276633E0,2.29541E1,1.4249331E0,-4.9397154E0,1.3251283E1,-1.3778161E0,4.8525814E1,1.6871483E1,6.8188605E0,-1.0501862E1,2.5449615E1,3.3998885E0,-4.6296606E0,-7.8981173E-1,-5.7358665E0,2.3517752E0,-9.095229E0,3.0147014E0,-5.2657285E0,-1.5557724E-1,5.6501384E0,-5.363082E-1,6.429808E0,1.8350143E0,1.0857836E0,-2.0641838E-1,1.7519077E0,6.6555567E0,-9.1056064E-2,2.8987007E0,-9.08949E-1,-4.789679E0,-1.3718053E0,8.954035E0,3.9672964E0,1.3467366E0,-4.4010657E-1,-1.442431E0,-6.0939083E0,1.8770695E0,-1.8798803E0,3.0163116E1,-1.382174E0,-1.437857E1,3.0615242E1,5.7959213E0,-8.370665E0,1.3485485E0,1.8279594E1,-6.650613E-1,1.928299E0,2.0910072E-1,-7.796107E0,-1.3429737E-1,1.898018E1,-4.53324E0,-1.4183399E1,1.9958067E0,1.4891639E1,7.0028534E1,3.462755E1,-5.102455E0,1.1820583E1,-1.5922928E0,-1.3089638E1,5.0750465E0,5.864468E0,-1.3190682E0],"categories":[],"categories_nodes":[],"categories_segments":[],"categories_sizes":[],"default_left":[1,1,1,1,1,1,1,1,1,1,1,1,1,1,1,1,1,1,1,1,1,1,1,1,1,1,1,1,1,1,1,1,1,1,1,1,1,1,1,1,1,1,1,0,0,1,1,1,1,1,1,1,0,1,1,1,1,1,1,1,1,0,1,0,0,0,0,0,0,0,0,0,0,0,0,0,0,0,0,0,0,0,0,0,0,0,0,0,0,0,0,0,0,0,0,0,0,0,0,0,0,0,0,0,0,0,0,0,0,0,0,0,0,0,0,0,0,0,0],"id":11,"left_children":[1,3,5,7,9,11,13,15,17,19,21,23,25,27,29,31,33,35,37,39,41,43,45,47,49,51,53,55,57,59,61,63,65,67,69,71,73,75,77,79,81,83,85,-1,-1,87,89,91,93,95,97,99,-1,101,103,105,107,109,111,113,115,-1,117,-1,-1,-1,-1,-1,-1,-1,-1,-1,-1,-1,-1,-1,-1,-1,-1,-1,-1,-1,-1,-1,-1,-1,-1,-1,-1,-1,-1,-1,-1,-1,-1,-1,-1,-1,-1,-1,-1,-1,-1,-1,-1,-1,-1,-1,-1,-1,-1,-1,-1,-1,-1,-1,-1,-1,-1],"loss_changes":[2.6480444E3,8.315197E2,2.1820908E3,1.179674E3,5.2929834E2,1.1126421E3,6.402852E3,4.9115912E2,1.3466589E3,4.7316568E2,6.525902E2,1.5413984E3,1.5415596E3,5.79817E3,2.3823623E3,2.801178E2,4.043381E2,1.2266528E3,5.988148E2,4.9726364E2,2.5920337E2,3.4717224E1,9.936084E1,2.0081549E3,2.4878271E3,9.9382837E2,7.709123E1,9.2572943E2,2.355542E3,6.942356E2,1.7833752E3,1.1456232E2,2.06113E2,4.120511E2,4.054812E2,1.5282036E3,2.0012773E3,3.323391E2,3.2808044E2,1.3366764E3,3.9189197E2,2.0291605E2,1.9921362E2,0E0,0E0,3.4338814E1,7.60824E1,2.331292E3,2.1127197E3,3.1420566E3,5.510917E2,1.672418E3,0E0,1.432817E0,1.0876227E2,1.0030132E3,4.171182E2,4.0197441E3,2.9078806E3,1.4503262E2,7.113833E2,0E0,6.2413855E2,0E0,0E0,0E0,0E0,0E0,0E0,0E0,0E0,0E0,0E0,0E0,0E0,0E0,0E0,0E0,0E0,0E0,0E0,0E0,0E0,0E0,0E0,0E0,0E0,0E0,0E0,0E0,0E0,0E0,0E0,0E0,0E0,0E0,0E0,0E0,0E0,0E0,0E0,0E0,0E0,0E0,0E0,0E0,0E0,0E0,0E0,0E0,0E0,0E0,0E0,0E0,0E0,0E0,0E0,0E0,0E0],"parents":[2147483647,0,0,1,1,2,2,3,3,4,4,5,5,6,6,7,7,8,8,9,9,10,10,11,11,12,12,13,13,14,14,15,15,16,16,17,17,18,18,19,19,20,20,21,21,22,22,23,23,24,24,25,25,26,26,27,27,28,28,29,29,30,30,31,31,32,32,33,33,34,34,35,35,36,36,37,37,38,38,39,39,40,40,41,41,42,42,45,45,46,46,47,47,48,48,49,49,50,50,51,51,53,53,54,54,55,55,56,56,57,57,58,58,59,59,60,60,62,62],"right_children":[2,4,6,8,10,12,14,16,18,20,22,24,26,28,30,32,34,36,38,40,42,44,46,48,50,52,54,56,58,60,62,64,66,68,70,72,74,76,78,80,82,84,86,-1,-1,88,90,92,94,96,98,100,-1,102,104,106,108,110,112,114,116,-1,118,-1,-1,-1,-1,-1,-1,-1,-1,-1,-1,-1,-1,-1,-1,-1,-1,-1,-1,-1,-1,-1,-1,-1,-1,-1,-1,-1,-1,-1,-1,-1,-1,-1,-1,-1,-1,-1,-1,-1,-1,-1,-1,-1,-1,-1,-1,-1,-1,-1,-1,-1,-1,-1,-1,-1,-1],"split_conditions":[1.3960891E0,-2.4638633E-1,9.212383E-1,-5.5519736E-1,2.6825504E0,4.1104326E0,-8.581627E-1,-1.2721016E0,-3.3577928E-1,1.1729904E0,-3.3648735E-1,-1.1374203E0,-1.2618892E-1,-1.0791869E0,-3.4823722E-1,-2.5219756E-1,-7.563648E-1,-1.3837464E0,-4.5061043E-1,9.2003E-1,6.3859817E-4,-5.637926E-1,1.0747647E0,-9.376762E-1,-7.8975147E-1,6.719364E-1,-9.141384E-1,1.8170772E0,2.478126E0,-6.8036747E-1,-3.4418088E-1,-6.130196E-1,-8.786894E-1,-7.977365E-1,-6.924404E-1,-9.517713E-1,-6.055006E-1,1.64585E-2,7.426775E-1,6.608453E-1,1.2604782E-1,2.0119317E0,1.2416648E0,-9.905086E-1,-2.4119325E0,4.9398365E0,7.127985E-1,2.88757E0,2.9500806E0,-6.9411093E-1,5.7258815E-2,-7.0951027E-1,6.88623E0,6.153745E0,-1.6612351E-1,-1.4490905E0,1.9733536E0,1.3091792E0,-2.1479356E-1,3.614255E0,6.608453E-1,7.634885E0,-2.5219756E-1,-1.3888983E0,-2.3694353E-1,-1.72076E0,7.0553255E-1,-2.7285688E0,9.044104E-1,-1.5797186E0,-4.6673175E-2,1.6950415E0,-1.6089247E-1,1.9289426E0,5.505043E-1,3.257351E-1,-6.1925516E-2,5.2557236E-1,1.996667E0,-2.731682E-2,8.6961025E-1,-2.7268472E-1,-1.4369037E0,-4.115416E-1,2.6862106E0,1.190189E0,4.04021E-1,-1.3203198E-1,-4.327293E-1,-1.8281726E0,5.6312084E-1,-5.639641E-1,9.048935E0,-4.1465223E-1,-4.313571E0,9.184573E0,1.7387764E0,-2.5111995E0,4.045646E-1,5.4838786E0,-1.995184E-1,5.784897E-1,6.273022E-2,-2.3388321E0,-4.0289212E-2,5.6940546E0,-1.359972E0,-4.25502E0,5.98742E-1,4.4674916E0,2.100856E1,1.0388265E1,-1.5307366E0,3.5461752E0,-4.7768787E-1,-3.9268916E0,1.522514E0,1.7593405E0,-3.9572048E-1],"split_indices":[4,2,12,0,2,0,1,1,1,2,1,1,1,1,1,5,1,1,2,2,1,0,0,2,1,14,2,0,0,2,1,0,0,2,1,2,2,1,0,2,1,2,2,0,0,2,1,0,0,2,3,2,0,0,2,1,0,0,2,0,2,0,5,0,0,0,0,0,0,0,0,0,0,0,0,0,0,0,0,0,0,0,0,0,0,0,0,0,0,0,0,0,0,0,0,0,0,0,0,0,0,0,0,0,0,0,0,0,0,0,0,0,0,0,0,0,0,0,0],"split_type":[0,0,0,0,0,0,0,0,0,0,0,0,0,0,0,0,0,0,0,0,0,0,0,0,0,0,0,0,0,0,0,0,0,0,0,0,0,0,0,0,0,0,0,0,0,0,0,0,0,0,0,0,0,0,0,0,0,0,0,0,0,0,0,0,0,0,0,0,0,0,0,0,0,0,0,0,0,0,0,0,0,0,0,0,0,0,0,0,0,0,0,0,0,0,0,0,0,0,0,0,0,0,0,0,0,0,0,0,0,0,0,0,0,0,0,0,0,0,0],"sum_hessian":[5.942E3,5.433E3,5.09E2,2.475E3,2.958E3,4.09E2,1E2,6.72E2,1.803E3,2.786E3,1.72E2,3.77E2,3.2E1,2.8E1,7.2E1,7E1,6.02E2,6.93E2,1.11E3,2.492E3,2.94E2,1.8E1,1.54E2,9.9E1,2.78E2,2.3E1,9E0,1.6E1,1.2E1,1.7E1,5.5E1,5.3E1,1.7E1,5.8E1,5.44E2,2.63E2,4.3E2,9.19E2,1.91E2,2.26E3,2.32E2,4.3E1,2.51E2,4E0,1.4E1,1.48E2,6E0,8E0,9.1E1,4.5E1,2.33E2,1.8E1,5E0,2E0,7E0,8E0,8E0,6E0,6E0,2E0,1.5E1,3E0,5.2E1,4.3E1,1E1,3E0,1.4E1,2E0,5.6E1,1.5E1,5.29E2,4.8E1,2.15E2,1.41E2,2.89E2,2.9E2,6.29E2,1.77E2,1.4E1,2.1E3,1.6E2,2.03E2,2.9E1,4.2E1,1E0,3.3E1,2.18E2,9.4E1,5.4E1,5E0,1E0,5E0,3E0,7.7E1,1.4E1,5E0,4E1,5E0,2.28E2,7E0,1.1E1,1E0,1E0,4E0,3E0,6E0,2E0,1E0,7E0,3E0,3E0,3E0,3E0,1E0,1E0,1.3E1,2E0,3.4E1,1.8E1],"tree_param":{"num_deleted":"0","num_feature":"17","num_nodes":"119","size_leaf_vector":"0"}},{"base_weights":[4.152702E-1,3.2922807E-1,3.78206E0,1.5693147E-1,1.2351973E0,6.5119786E0,-2.1818435E-1,1.2957864E-1,6.7848835E0,3.3160102E0,5.936566E-1,5.626665E0,2.3696898E1,-9.678739E0,2.0567124E0,-1.6015692E0,2.0940965E-1,-1.8284536E1,9.06667E0,2.2180617E0,1.2528265E1,-1.677676E0,7.985951E-1,9.212257E0,1.7363621E0,5.797592E0,2.7730803E1,-1.3780531E1,1.9699783E0,3.6332438E0,-3.8631032E0,-1.1089128E0,-1.4148858E1,1.2724521E1,1.9045536E-1,1.0136404E1,-5.094269E0,-1.5293977E0,3.1290293E0,2.1336422E1,-3.544025E0,-1.8844046E-1,-8.956085E0,3.9871317E-1,2.1549592E0,5.328782E0,1.5066671E1,-6.4377275E0,6.0533257E0,-2.1907581E1,-8.328862E0,6.6049194E0,-5.9674225E0,2.302128E0,1.9282963E1,-6.9384475E0,-1.4390834E-1,-1.4192675E0,1.4996407E1,-2.4500143E1,-3.0380585E0,4.3676577E0,2.241112E1,5.1530087E-1,-6.936884E-2,1.2498731E1,5.6211553E0,-2.0534766E0,9.192802E0,3.664586E0,-3.1263795E0,5.718476E0,3.4287315E1,3.3363087E0,-1.2978519E1,-1.2589878E0,3.3065414E0,6.903843E0,-1.1485394E1,3.4144446E-1,9.848774E0,3.604099E0,-9.391675E-1,1.1428523E1,-6.7936044E0,7.6839857E0,2.732093E1,-7.416702E0,3.633957E0,-4.7874274E0,9.227505E0,-3.0315332E0,-1.1543976E1,8.774944E0,1.1324348E0,1.144205E0,1.542983E1,-8.487673E-1,-7.98663E0,5.411032E-1,-1.784483E0],"categories":[],"categories_nodes":[],"categories_segments":[],"categories_sizes":[],"default_left":[1,1,1,1,1,1,1,1,1,1,1,1,1,1,1,1,1,0,1,1,1,1,1,1,1,0,0,1,1,1,1,1,1,1,1,1,0,1,1,1,1,1,1,1,1,1,1,1,1,0,1,1,0,1,0,1,1,0,0,0,0,0,0,0,0,0,0,0,0,0,0,0,0,0,0,0,0,0,0,0,0,0,0,0,0,0,0,0,0,0,0,0,0,0,0,0,0,0,0,0,0],"id":12,"left_children":[1,3,5,7,9,11,13,15,17,19,21,23,25,27,29,31,33,-1,35,37,39,41,43,45,47,-1,-1,49,51,53,55,57,59,61,63,65,-1,67,69,71,73,75,77,79,81,83,85,87,89,-1,91,93,-1,95,-1,97,99,-1,-1,-1,-1,-1,-1,-1,-1,-1,-1,-1,-1,-1,-1,-1,-1,-1,-1,-1,-1,-1,-1,-1,-1,-1,-1,-1,-1,-1,-1,-1,-1,-1,-1,-1,-1,-1,-1,-1,-1,-1,-1,-1,-1],"loss_changes":[1.7203572E3,9.045353E2,1.6176316E3,8.822005E2,1.2341731E3,1.2055015E3,1.3327354E3,6.708783E2,1.3098413E3,2.17719E3,3.3136755E2,1.1696721E3,1.2804443E2,6.005149E2,4.8067438E2,1.3071516E3,1.0980167E3,0E0,3.39458E2,6.73893E2,3.3316633E3,6.37829E2,3.5223373E2,9.200742E2,1.521034E3,0E0,0E0,2.1628845E2,1.8657188E2,7.888717E2,1.2481737E2,1.055945E3,8.456555E2,4.6876306E2,3.9107355E2,1.2173938E2,0E0,2.3802911E2,5.4077686E2,2.8379233E3,6.275126E2,1.9124005E2,4.8043976E2,2.6939838E2,6.669907E2,2.1480566E3,1.3280449E3,1.7485077E2,1.0076698E3,0E0,8.42247E1,2.568924E1,0E0,5.599782E2,0E0,3.1519775E1,7.708464E0,0E0,0E0,0E0,0E0,0E0,0E0,0E0,0E0,0E0,0E0,0E0,0E0,0E0,0E0,0E0,0E0,0E0,0E0,0E0,0E0,0E0,0E0,0E0,0E0,0E0,0E0,0E0,0E0,0E0,0E0,0E0,0E0,0E0,0E0,0E0,0E0,0E0,0E0,0E0,0E0,0E0,0E0,0E0,0E0],"parents":[2147483647,0,0,1,1,2,2,3,3,4,4,5,5,6,6,7,7,8,8,9,9,10,10,11,11,12,12,13,13,14,14,15,15,16,16,18,18,19,19,20,20,21,21,22,22,23,23,24,24,27,27,28,28,29,29,30,30,31,31,32,32,33,33,34,34,35,35,37,37,38,38,39,39,40,40,41,41,42,42,43,43,44,44,45,45,46,46,47,47,48,48,50,50,51,51,53,53,55,55,56,56],"right_children":[2,4,6,8,10,12,14,16,18,20,22,24,26,28,30,32,34,-1,36,38,40,42,44,46,48,-1,-1,50,52,54,56,58,60,62,64,66,-1,68,70,72,74,76,78,80,82,84,86,88,90,-1,92,94,-1,96,-1,98,100,-1,-1,-1,-1,-1,-1,-1,-1,-1,-1,-1,-1,-1,-1,-1,-1,-1,-1,-1,-1,-1,-1,-1,-1,-1,-1,-1,-1,-1,-1,-1,-1,-1,-1,-1,-1,-1,-1,-1,-1,-1,-1,-1,-1],"split_conditions":[2.6991935E0,9.212383E-1,-3.4228933E-1,4.1002746E0,-7.859731E-1,6.6765556E0,-2.0017496E-1,-1.4723268E0,-1.6014447E0,9.809989E-1,-1.6927867E0,-5.2423954E-1,1.5170267E0,3.833042E0,5.022212E-1,3.0047774E0,-1.4676055E0,-5.485361E0,1.0080444E0,-6.638094E-1,1.8170772E0,7.6221204E-1,1.7305031E-1,-6.59716E-1,-9.369913E-2,1.7392777E0,8.319242E0,1.6608009E0,4.2393603E0,1.5483665E0,7.127985E-1,2.3327892E0,-2.5219756E-1,1.4420141E0,-2.210415E-1,-5.426524E-1,-1.5282807E0,-8.020139E-1,6.9345045E-1,1.3960891E0,-9.57938E-2,5.7258815E-2,-7.4069136E-1,1.3811182E0,3.514759E-1,-7.1256995E-1,1.1669704E0,3.602118E0,-1.0467533E0,-6.5722747E0,3.239192E0,4.0674562E0,-1.7902268E0,5.305402E0,5.784889E0,1.0396025E0,1.6749603E0,-4.2578027E-1,4.4989223E0,-7.3500433E0,-9.114176E-1,1.3102974E0,6.723336E0,1.5459026E-1,-2.0810653E-2,3.7496192E0,1.6863467E0,-6.16043E-1,2.7578409E0,1.0993758E0,-9.379139E-1,1.7155428E0,1.0286195E1,1.0008926E0,-3.8935559E0,-3.7769637E-1,9.919625E-1,2.071153E0,-3.4456182E0,1.02433346E-1,2.9546323E0,1.0812298E0,-2.8175026E-1,3.4285572E0,-2.0380814E0,2.3051958E0,8.19628E0,-2.2250106E0,1.0901871E0,-1.4362283E0,2.7682514E0,-9.0946E-1,-3.463193E0,2.6324835E0,3.3973047E-1,3.432615E-1,4.628949E0,-2.546302E-1,-2.3959892E0,1.6233096E-1,-5.353449E-1],"split_indices":[4,12,1,0,1,3,1,1,1,0,15,2,0,0,1,0,1,0,1,0,0,0,0,2,2,0,0,0,0,2,1,0,5,0,2,2,0,1,0,4,2,3,2,3,1,2,10,5,1,0,0,0,0,4,0,0,5,0,0,0,0,0,0,0,0,0,0,0,0,0,0,0,0,0,0,0,0,0,0,0,0,0,0,0,0,0,0,0,0,0,0,0,0,0,0,0,0,0,0,0,0],"split_type":[0,0,0,0,0,0,0,0,0,0,0,0,0,0,0,0,0,0,0,0,0,0,0,0,0,0,0,0,0,0,0,0,0,0,0,0,0,0,0,0,0,0,0,0,0,0,0,0,0,0,0,0,0,0,0,0,0,0,0,0,0,0,0,0,0,0,0,0,0,0,0,0,0,0,0,0,0,0,0,0,0,0,0,0,0,0,0,0,0,0,0,0,0,0,0,0,0,0,0,0,0],"sum_hessian":[5.942E3,5.795E3,1.47E2,4.87E3,9.25E2,8.7E1,6E1,4.851E3,1.9E1,2.17E2,7.08E2,8.4E1,3E0,1.1E1,4.9E1,2.13E2,4.638E3,1E0,1.8E1,1.95E2,2.2E1,5.8E1,6.5E2,4.3E1,4.1E1,1E0,2E0,8E0,3E0,3.9E1,1E1,2.06E2,7E0,6E0,4.632E3,1.7E1,1E0,3.8E1,1.57E2,1.4E1,8E0,4.9E1,9E0,5.03E2,1.47E2,2.7E1,1.6E1,1.4E1,2.7E1,2E0,6E0,2E0,1E0,3.7E1,2E0,5E0,5E0,2.03E2,3E0,3E0,4E0,4E0,2E0,2.058E3,2.574E3,1E1,7E0,3.7E1,1E0,1.45E2,1.2E1,7E0,7E0,5E0,3E0,3.8E1,1.1E1,1E0,8E0,5.01E2,2E0,1E2,4.7E1,1.8E1,9E0,1.1E1,5E0,1.3E1,1E0,6E0,2.1E1,3E0,3E0,1E0,1E0,3.5E1,2E0,1E0,4E0,4E0,1E0],"tree_param":{"num_deleted":"0","num_feature":"17","num_nodes":"101","size_leaf_vector":"0"}},{"base_weights":[2.9691976E-1,2.8240684E-1,1.2563548E1,1.805362E-1,1.5035678E0,2.7200684E1,5.590578E0,1.8624134E-1,-1.5541855E1,1.3924052E1,1.3631573E0,7.407854E0,1.304017E0,3.4439158E-1,-3.6685345E-1,6.4032745E-1,2.2566427E1,-3.0904474E0,1.6976411E0,5.5527406E0,3.2468873E-1,-4.0758175E-1,6.743189E0,9.114647E-1,4.902649E-2,6.136455E0,-1.06078415E1,3.2272654E0,1.6722442E-1,5.500258E-1,9.3826275E0,-3.468113E0,3.807874E-1,-3.0892992E-1,-1.9218454E0,1.53340435E1,2.7557056E0,-1.5047058E0,1.7848982E1,-1.2418747E-2,-1.4682049E1,5.726389E0,9.670901E-1,-1.1125274E0,2.2927213E0],"categories":[],"categories_nodes":[],"categories_segments":[],"categories_sizes":[],"default_left":[1,1,1,1,1,0,1,1,0,1,1,0,0,1,1,1,0,1,1,1,1,1,1,0,0,1,1,1,1,0,0,0,0,0,0,0,0,0,0,0,0,0,0,0,0],"id":13,"left_children":[1,3,5,7,9,-1,11,13,-1,15,17,-1,-1,19,21,23,-1,25,27,29,31,33,35,-1,-1,37,39,41,43,-1,-1,-1,-1,-1,-1,-1,-1,-1,-1,-1,-1,-1,-1,-1,-1],"loss_changes":[1.0544536E3,7.38294E2,5.6238257E2,4.945329E2,7.7801245E2,0E0,3.7079224E1,4.794733E2,0E0,5.5956476E2,6.8006195E2,0E0,0E0,4.3556055E2,3.557464E2,4.3628526E-1,0E0,2.284687E3,9.8734656E2,3.0139664E2,9.049595E2,1.8061018E2,1.9753513E2,0E0,0E0,1.3693169E3,7.7684094E2,1.1862866E3,5.7921375E2,0E0,0E0,0E0,0E0,0E0,0E0,0E0,0E0,0E0,0E0,0E0,0E0,0E0,0E0,0E0,0E0],"parents":[2147483647,0,0,1,1,2,2,3,3,4,4,6,6,7,7,9,9,10,10,13,13,14,14,15,15,17,17,18,18,19,19,20,20,21,21,22,22,25,25,26,26,27,27,28,28],"right_children":[2,4,6,8,10,-1,12,14,-1,16,18,-1,-1,20,22,24,-1,26,28,30,32,34,36,-1,-1,38,40,42,44,-1,-1,-1,-1,-1,-1,-1,-1,-1,-1,-1,-1,-1,-1,-1,-1],"split_conditions":[6.608506E0,1.3811182E0,-9.931269E-1,7.3648868E0,-2.2142336E0,8.160206E0,-3.3262873E-1,6.719364E-1,-4.6625566E0,1.3091792E0,-1.630487E0,2.2223563E0,3.912051E-1,-1.9515359E0,2.831255E0,8.169088E-1,6.7699285E0,-9.376762E-1,-2.5219756E-1,-5.8238663E-2,-1.781929E0,7.7080727E-1,-5.904169E-1,2.734394E-1,1.4707947E-2,2.88757E0,-1.8787129E0,-3.8073277E-1,2.7156663E0,1.6500776E-1,2.8147883E0,-1.0404339E0,1.1423623E-1,-9.267898E-2,-5.7655364E-1,4.600213E0,8.267117E-1,-4.5141175E-1,5.354695E0,-3.7256242E-3,-4.404615E0,1.7179167E0,2.9012704E-1,-3.3375823E-1,6.878164E-1],"split_indices":[4,3,1,0,1,0,1,14,0,0,1,0,0,1,5,0,0,2,5,0,1,0,1,0,0,0,1,1,0,0,0,0,0,0,0,0,0,0,0,0,0,0,0,0,0],"split_type":[0,0,0,0,0,0,0,0,0,0,0,0,0,0,0,0,0,0,0,0,0,0,0,0,0,0,0,0,0,0,0,0,0,0,0,0,0,0,0,0,0,0,0,0,0],"sum_hessian":[5.942E3,5.936E3,6E0,5.48E3,4.56E2,1E0,5E0,5.479E3,1E0,4E0,4.52E2,3E0,2E0,4.261E3,1.218E3,2E0,2E0,3.1E1,4.21E2,1.5E1,4.246E3,1.212E3,6E0,1E0,1E0,1.4E1,1.7E1,2.1E2,2.11E2,7E0,8E0,6.1E1,4.185E3,1.139E3,7.3E1,1E0,5E0,9E0,5E0,5E0,1.2E1,9.9E1,1.11E2,1.32E2,7.9E1],"tree_param":{"num_deleted":"0","num_feature":"17","num_nodes":"45","size_leaf_vector":"0"}},{"base_weights":[2.116865E-1,1.9971666E-1,1.0333592E1,-4.5499143E-1,3.475389E-1,2.3120575E1,4.3489995E0,-3.5617378E-1,-2.6009724E0,7.742773E-1,5.1237024E-2,5.741089E0,1.0432135E0,-3.378384E-1,-9.7674885E0,-6.838814E0,-1.447655E0,5.376785E-1,5.3245263E0,3.936093E-2,1.7002495E1,-4.7507325E-1,6.501042E-1,-8.581495E0,8.79418E-2,2.8249419E0,-1.754956E0,1.8284427E0,-3.5099548E-1,1.2647814E1,2.3614764E0,-9.1962355E-1,1.508902E-1,-1.5845166E0,-3.4373537E-1,-2.3137484E0,8.937044E-1,-1.1847534E0,-9.468922E0,1.434741E0,-1.3028283E0,3.5787687E0,-2.0025253E0,8.609893E-1,3.4902406E0,-7.3541594E0,-2.1685767E-1,3.436088E0,1.5554766E1,2.6617497E-1,1.0166189E1,-7.071468E-1,-7.663914E0,3.041652E-1,-8.3165777E-1],"categories":[],"categories_nodes":[],"categories_segments":[],"categories_sizes":[],"default_left":[1,1,1,1,1,0,1,1,1,1,1,0,0,1,0,1,1,1,1,1,0,1,1,1,1,0,1,1,1,1,1,1,1,0,0,0,0,0,0,0,0,0,0,0,0,0,0,0,0,0,0,0,0,0,0],"id":14,"left_children":[1,3,5,7,9,-1,11,13,15,17,19,-1,-1,21,-1,23,25,27,29,31,-1,33,35,37,39,-1,41,43,45,47,49,51,53,-1,-1,-1,-1,-1,-1,-1,-1,-1,-1,-1,-1,-1,-1,-1,-1,-1,-1,-1,-1,-1,-1],"loss_changes":[7.179767E2,5.747434E2,4.351228E2,2.3106813E2,6.124523E2,0E0,2.162252E1,1.7737048E2,2.2470343E2,2.134156E3,5.750909E2,0E0,0E0,1.421257E2,0E0,1.2146597E2,5.6163605E1,2.1663071E3,2.0966604E3,3.0592264E2,0E0,1.3336462E2,9.448318E1,4.129419E1,7.488485E0,0E0,5.6023827E1,1.2349333E3,1.0495814E3,6.963374E2,1.158373E3,4.2161584E2,3.8609033E2,0E0,0E0,0E0,0E0,0E0,0E0,0E0,0E0,0E0,0E0,0E0,0E0,0E0,0E0,0E0,0E0,0E0,0E0,0E0,0E0,0E0,0E0],"parents":[2147483647,0,0,1,1,2,2,3,3,4,4,6,6,7,7,8,8,9,9,10,10,13,13,15,15,16,16,17,17,18,18,19,19,21,21,22,22,23,23,24,24,26,26,27,27,28,28,29,29,30,30,31,31,32,32],"right_children":[2,4,6,8,10,-1,12,14,16,18,20,-1,-1,22,-1,24,26,28,30,32,-1,34,36,38,40,-1,42,44,46,48,50,52,54,-1,-1,-1,-1,-1,-1,-1,-1,-1,-1,-1,-1,-1,-1,-1,-1,-1,-1,-1,-1,-1,-1],"split_conditions":[6.608506E0,-6.192707E-1,-9.931269E-1,5.7258815E-2,-3.3128083E-1,6.936173E0,-3.3262873E-1,1.3960891E0,-8.8259625E-1,-3.4488025E-1,5.305402E0,1.7223268E0,3.1296405E-1,1.1669704E0,-2.9302466E0,4.4353163E-1,-8.7629366E-1,-3.4252724E-1,-3.4411097E-1,-1.80553E-1,5.1007485E0,-1.0791869E0,-9.8808277E-1,-9.833945E-1,1.2470262E0,8.474826E-1,-8.591548E-1,-1.0612137E0,-3.237915E-1,-3.9032584E-1,1.231041E0,2.6991935E0,1.2924728E0,-4.75355E-1,-1.0312062E-1,-6.941245E-1,2.6811135E-1,-3.5542604E-1,-2.8406765E0,4.3042234E-1,-3.9084852E-1,1.0736307E0,-6.007576E-1,2.582968E-1,1.0470722E0,-2.2062478E0,-6.505731E-2,1.0308264E0,4.66643E0,7.985249E-2,3.049857E0,-2.1214406E-1,-2.2991743E0,9.124957E-2,-2.4949734E-1],"split_indices":[4,0,1,3,1,0,1,4,0,1,4,0,0,10,0,1,1,2,1,1,0,1,0,0,1,0,0,1,2,0,0,4,1,0,0,0,0,0,0,0,0,0,0,0,0,0,0,0,0,0,0,0,0,0,0],"split_type":[0,0,0,0,0,0,0,0,0,0,0,0,0,0,0,0,0,0,0,0,0,0,0,0,0,0,0,0,0,0,0,0,0,0,0,0,0,0,0,0,0,0,0,0,0,0,0,0,0,0,0,0,0,0,0],"sum_hessian":[5.942E3,5.936E3,6E0,1.093E3,4.843E3,1E0,5E0,1.046E3,4.7E1,1.984E3,2.859E3,3E0,2E0,1.045E3,1E0,9E0,3.8E1,1.887E3,9.7E1,2.858E3,1E0,9.18E2,1.27E2,7E0,2E0,2E0,3.6E1,7.69E2,1.118E3,2.7E1,7E1,2.97E2,2.561E3,9.6E1,8.22E2,9E0,1.18E2,1E0,6E0,1E0,1E0,1E0,3.5E1,4.87E2,2.82E2,2E1,1.098E3,7E0,2E1,5.6E1,1.4E1,2.89E2,8E0,2.216E3,3.45E2],"tree_param":{"num_deleted":"0","num_feature":"17","num_nodes":"55","size_leaf_vector":"0"}},{"base_weights":[1.5045093E-1,7.990754E-1,1.6376594E-2,8.879754E-2,4.497176E0,-1.3977924E1,2.2056233E-2,3.6665752E0,-3.316839E-1,2.7132832E1,3.3151224E0,1.9119328E-1,-3.638974E-1,2.967814E0,3.292816E1,-3.9774153E-1,1.660155E1,8.118433E0,3.691778E1,1.6736032E0,1.1156748E1,5.4813595E0,9.2034295E-2,-1.5094787E0,2.3598477E-1,-7.424786E0,3.6748114E0,4.5216703E0,-6.049677E-1,1.9652481E1,5.2498436E0,1.4860572E1,-6.0539913E0,2.1736908E0,-5.346884E0,5.2070932E0,2.7411892E1,1.2986966E1,2.649941E0,6.0170572E-2,5.6968822E0,-1.160463E0,-6.272796E0,1.7209767E0,-2.6000035E-1,2.8368896E1,3.0354984E0,-6.6134696E0,5.517662E0,-4.1417956E0,1.1836089E-2,1.6345851E0,9.719011E0,-1.1889127E1,5.8032017E0,2.7147954E0,1.2639487E1,6.2580456E1,8.283752E-1,-5.810583E0,1.5880678E1,-8.77807E0,4.8692946E0,-1.4648938E-1,7.6567954E-1,1.0509526E1,-4.054726E0,-2.4332712E0,-3.801816E-1,-9.352412E0,-2.844692E0,-4.5379817E-1,3.1303563E0,-1.6826284E0,9.250187E-2],"categories":[],"categories_nodes":[],"categories_segments":[],"categories_sizes":[],"default_left":[1,1,1,1,1,0,1,1,1,1,1,1,1,1,0,1,1,1,0,1,1,1,1,1,1,0,1,1,1,0,0,0,0,1,1,1,1,1,1,1,1,1,1,1,1,0,0,0,0,0,0,0,0,0,0,0,0,0,0,0,0,0,0,0,0,0,0,0,0,0,0,0,0,0,0],"id":15,"left_children":[1,3,5,7,9,-1,11,13,15,17,19,21,23,25,-1,27,29,31,-1,33,35,37,39,41,43,-1,45,47,49,-1,-1,-1,-1,51,53,55,57,59,61,63,65,67,69,71,73,-1,-1,-1,-1,-1,-1,-1,-1,-1,-1,-1,-1,-1,-1,-1,-1,-1,-1,-1,-1,-1,-1,-1,-1,-1,-1,-1,-1,-1,-1],"loss_changes":[5.168133E2,2.6735598E3,3.9183954E2,1.2874689E3,4.2981265E3,0E0,3.2156894E2,1.7424927E3,8.6342706E2,1.1887251E3,2.0022601E3,1.7961392E3,1.0318641E3,6.81216E2,0E0,7.815808E2,7.272949E-1,4.721756E2,0E0,4.7154498E2,2.4685007E3,1.3044308E3,6.002598E2,8.5055664E2,7.2666986E2,0E0,1.2400153E3,3.802965E2,1.6012911E3,0E0,0E0,0E0,0E0,4.8444348E2,7.2551416E2,3.5468488E2,6.492489E3,1.0169856E3,1.2347947E3,4.8781467E2,9.343026E2,4.7777258E2,3.428988E2,7.584961E2,3.712505E2,0E0,0E0,0E0,0E0,0E0,0E0,0E0,0E0,0E0,0E0,0E0,0E0,0E0,0E0,0E0,0E0,0E0,0E0,0E0,0E0,0E0,0E0,0E0,0E0,0E0,0E0,0E0,0E0,0E0,0E0],"parents":[2147483647,0,0,1,1,2,2,3,3,4,4,6,6,7,7,8,8,9,9,10,10,11,11,12,12,13,13,15,15,16,16,17,17,19,19,20,20,21,21,22,22,23,23,24,24,26,26,27,27,28,28,33,33,34,34,35,35,36,36,37,37,38,38,39,39,40,40,41,41,42,42,43,43,44,44],"right_children":[2,4,6,8,10,-1,12,14,16,18,20,22,24,26,-1,28,30,32,-1,34,36,38,40,42,44,-1,46,48,50,-1,-1,-1,-1,52,54,56,58,60,62,64,66,68,70,72,74,-1,-1,-1,-1,-1,-1,-1,-1,-1,-1,-1,-1,-1,-1,-1,-1,-1,-1,-1,-1,-1,-1,-1,-1,-1,-1,-1,-1,-1,-1],"split_conditions":[-9.108377E-1,-1.0141222E0,-9.105536E-1,-9.057995E-1,-6.821382E-1,-4.1933775E0,1.285556E-1,-1.3558561E0,6.6765556E0,-5.8238655E-2,9.212383E-1,-8.0776596E-1,5.954629E-1,-1.2283154E0,9.8784485E0,-1.9553576E0,3.6923933E0,-2.5219756E-1,1.1075335E1,1.5045247E0,1.2701101E0,-6.993711E-1,4.028837E0,7.0751536E-1,9.2003E-1,-2.2274358E0,-1.2002151E0,-8.662807E-1,-1.6619556E0,5.8957443E0,1.5749532E0,4.458172E0,-1.8161975E0,1.3960891E0,2.6922247E0,-9.3425393E-1,2.478126E0,-7.5679386E-1,-5.916506E-1,-7.7145636E-2,-2.0174888E-1,-5.0900257E-1,-3.5612983E-1,6.608453E-1,1.0745339E0,8.51067E0,9.1064954E-1,-1.984041E0,1.6552987E0,-1.2425387E0,3.5508268E-3,4.9037555E-1,2.9157035E0,-3.5667381E0,1.7409606E0,8.1443864E-1,3.7918463E0,1.8774137E1,2.4851258E-1,-1.743175E0,4.7642035E0,-2.6334212E0,1.4607885E0,-4.3946818E-2,2.2970387E-1,3.152858E0,-1.2164179E0,-7.2998136E-1,-1.14054486E-1,-2.8057237E0,-8.534076E-1,-1.3613945E-1,9.3910694E-1,-5.047885E-1,2.7750563E-2],"split_indices":[1,1,1,2,2,0,2,1,3,0,12,1,2,2,0,1,0,5,0,0,0,2,3,0,2,0,2,2,1,0,0,0,0,4,0,1,0,0,2,2,2,1,1,2,2,0,0,0,0,0,0,0,0,0,0,0,0,0,0,0,0,0,0,0,0,0,0,0,0,0,0,0,0,0,0],"split_type":[0,0,0,0,0,0,0,0,0,0,0,0,0,0,0,0,0,0,0,0,0,0,0,0,0,0,0,0,0,0,0,0,0,0,0,0,0,0,0,0,0,0,0,0,0,0,0,0,0,0,0,0,0,0,0,0,0,0,0,0,0,0,0,0,0,0,0,0,0,0,0,0,0,0,0],"sum_hessian":[5.942E3,1.017E3,4.925E3,8.54E2,1.63E2,1E0,4.924E3,8.9E1,7.65E2,7E0,1.56E2,3.424E3,1.5E3,8.8E1,1E0,7.63E2,2E0,3E0,4E0,1.3E2,2.6E1,6.2E1,3.362E3,5.15E2,9.85E2,5E0,8.3E1,3E1,7.33E2,1E0,1E0,2E0,1E0,1.22E2,8E0,2E1,6E0,1.6E1,4.6E1,3.344E3,1.8E1,4.81E2,3.4E1,2.46E2,7.39E2,1E0,8.2E1,2E0,2.8E1,1.08E2,6.25E2,1.15E2,7E0,5E0,3E0,1.6E1,4E0,2E0,4E0,2E0,1.4E1,7E0,3.9E1,2.587E3,7.57E2,1.2E1,6E0,1.82E2,2.99E2,1.7E1,1.7E1,9.7E1,1.49E2,1.46E2,5.93E2],"tree_param":{"num_deleted":"0","num_feature":"17","num_nodes":"75","size_leaf_vector":"0"}},{"base_weights":[1.1499116E-1,1.612681E-1,-1.3934499E0,1.550504E-1,1.2055858E1,-5.0490527E0,-9.4785297E-1,4.262527E-2,7.379989E-1,1.3791809E0,1.6704605E1,-1.4996966E0,-5.3784065E0,-6.890519E-1,-4.735083E0,-5.75175E-1,1.3703808E-1,2.2494595E0,3.3503518E-1,-3.269758E0,-6.231328E0,-1.348608E0,-4.689412E-1,1.834691E0,-5.668913E0,3.7235875E0,-8.1462026E-1,2.0826323E0,5.432594E-2,1.3724129E0,1.6875023E1,4.950841E-1,-2.2595935E0,-6.71215E0,-2.7117517E0,-1.6626121E0,-5.558816E-1,-1.484269E0,-2.631061E-1,-7.691393E-1,-6.1852417E0,1.5139129E0,1.6236917E1,-6.09791E0,-6.6152817E-1,-5.0085144E0,2.7965794E0,-1.9214854E0,9.233742E-2,7.8484136E-1,5.9516726E0,2.0209076E1,5.988163E0,-3.3774164E0,6.030345E-1,-9.636397E0,-2.3486713E-2,-2.1610222E0,-1.2716291E0,-8.758151E-1,-2.0224129E-1,-3.0596972E-1,-3.986256E0,-5.989917E-1,4.6049246E-1,-3.311812E0,-7.2469378E0],"categories":[],"categories_nodes":[],"categories_segments":[],"categories_sizes":[],"default_left":[1,1,1,1,1,1,1,1,1,0,0,0,1,1,1,1,1,1,1,0,1,1,1,0,1,1,1,1,1,1,1,1,1,0,0,1,1,1,1,0,1,0,0,0,0,0,0,0,0,0,0,0,0,0,0,0,0,0,0,0,0,0,0,0,0,0,0],"id":16,"left_children":[1,3,5,7,9,11,13,15,17,-1,-1,-1,19,21,23,25,27,29,31,-1,33,35,37,-1,39,41,43,45,47,49,51,53,55,-1,-1,57,59,61,63,-1,65,-1,-1,-1,-1,-1,-1,-1,-1,-1,-1,-1,-1,-1,-1,-1,-1,-1,-1,-1,-1,-1,-1,-1,-1,-1,-1],"loss_changes":[4.150819E2,4.2464062E2,2.8353406E2,3.7779547E2,1.2586081E2,1.4144928E1,1.5257939E2,2.820376E2,5.668938E2,0E0,0E0,0E0,1.0199738E1,2.114389E1,7.1751175E1,6.628265E2,6.748032E2,2.4909915E3,3.0717084E2,0E0,4.1351318E-1,8.285797E0,2.3434353E1,0E0,1.801175E1,9.155318E2,4.8773477E2,8.797289E2,3.0239395E2,4.957884E2,2.7825586E2,2.9257312E2,7.090724E2,0E0,0E0,2.3186035E0,1.1805706E0,5.4794033E1,2.3608278E1,0E0,4.0518188E-1,0E0,0E0,0E0,0E0,0E0,0E0,0E0,0E0,0E0,0E0,0E0,0E0,0E0,0E0,0E0,0E0,0E0,0E0,0E0,0E0,0E0,0E0,0E0,0E0,0E0,0E0],"parents":[2147483647,0,0,1,1,2,2,3,3,4,4,5,5,6,6,7,7,8,8,12,12,13,13,14,14,15,15,16,16,17,17,18,18,20,20,21,21,22,22,24,24,25,25,26,26,27,27,28,28,29,29,30,30,31,31,32,32,35,35,36,36,37,37,38,38,40,40],"right_children":[2,4,6,8,10,12,14,16,18,-1,-1,-1,20,22,24,26,28,30,32,-1,34,36,38,-1,40,42,44,46,48,50,52,54,56,-1,-1,58,60,62,64,-1,66,-1,-1,-1,-1,-1,-1,-1,-1,-1,-1,-1,-1,-1,-1,-1,-1,-1,-1,-1,-1,-1,-1,-1,-1,-1,-1],"split_conditions":[2.6825504E0,8.662345E0,-3.3648735E-1,9.212383E-1,1.5170267E0,-1.3468617E0,1.0747647E0,-7.4988145E-1,-8.905289E-1,4.1375428E-1,5.0113816E0,-4.49909E-1,-3.668844E-1,-5.153469E-1,9.2984885E-2,-1.8875337E0,-6.7617345E-1,-9.3425393E-1,2.060392E0,-9.809274E-1,2.1524492E-1,7.9019576E-1,4.8667097E-1,5.5040735E-1,3.625415E-1,2.7938042E0,-1.8175273E0,-1.6450287E0,-1.5240033E0,-1.0224154E0,5.1866555E-1,-8.142773E-1,-3.4416342E-1,-2.0136452E0,-8.1352556E-1,6.719364E-1,-6.9115776E-1,5.7258815E-2,6.719364E-1,-2.307418E-1,4.954548E0,4.541739E-1,4.8710756E0,-1.829373E0,-1.9845846E-1,-1.5025544E0,8.389738E-1,-5.7644564E-1,2.7701227E-2,2.3545241E-1,1.7855018E0,6.062723E0,1.796449E0,-1.013225E0,1.8091035E-1,-2.8909192E0,-7.046014E-3,-6.4830667E-1,-3.8148874E-1,-2.6274455E-1,-6.0672387E-2,-9.1790915E-2,-1.1958768E0,-1.7969751E-1,1.3814774E-1,-9.935436E-1,-2.1740813E0],"split_indices":[2,3,1,12,0,1,0,2,1,0,0,0,0,0,4,1,2,1,5,0,0,13,1,0,1,0,1,1,1,1,5,1,1,0,0,14,0,3,14,0,2,0,0,0,0,0,0,0,0,0,0,0,0,0,0,0,0,0,0,0,0,0,0,0,0,0,0],"split_type":[0,0,0,0,0,0,0,0,0,0,0,0,0,0,0,0,0,0,0,0,0,0,0,0,0,0,0,0,0,0,0,0,0,0,0,0,0,0,0,0,0,0,0,0,0,0,0,0,0,0,0,0,0,0,0,0,0,0,0,0,0,0,0,0,0,0,0],"sum_hessian":[5.942E3,5.766E3,1.76E2,5.764E3,2E0,1.8E1,1.58E2,4.833E3,9.31E2,1E0,1E0,2E0,1.6E1,1.49E2,9E0,6.4E2,4.193E3,1.95E2,7.36E2,6E0,1E1,3.6E1,1.13E2,1E0,8E0,3.3E1,6.07E2,1.7E2,4.023E3,1.85E2,1E1,6.94E2,4.2E1,8E0,2E0,2.5E1,1.1E1,1.8E1,9.5E1,1E0,7E0,2.9E1,4E0,1.6E1,5.91E2,1.5E1,1.55E2,7.5E1,3.948E3,1.65E2,2E1,7E0,3E0,1.8E1,6.76E2,9E0,3.3E1,9E0,1.6E1,5E0,6E0,1.3E1,5E0,6.5E1,3E1,3E0,4E0],"tree_param":{"num_deleted":"0","num_feature":"17","num_nodes":"67","size_leaf_vector":"0"}},{"base_weights":[8.114542E-2,3.2268363E-1,-1.2882085E-1,9.9249405E-1,7.458101E-2,-8.0598366E-1,3.846311E-2,3.1031096E-1,4.2582216E0,-4.725328E0,2.0143443E-1,-2.6998907E-1,-3.1053386E0,5.791293E0,-8.826661E-2,4.8122954E0,3.2259993E-2,1.1370806E1,2.3524158E0,-1.1427761E1,-1.143353E0,1.4966382E-1,9.393584E0,3.9290898E-2,-2.4748464E0,-5.341313E0,-1.349809E0,4.7253976E0,2.2691679E1,-4.9455185E0,-4.7051206E-2,5.1628596E-1,9.079622E0,-6.913789E-1,1.905532E0,1.9652546E1,3.4352448E0,3.1165068E0,-1.3247069E1,-1.239701E1,-4.936138E0,1.5542548E0,-5.8280935E0,1.1531291E1,1.3212186E-1,-2.653312E0,1.2365485E1,2.3500755E0,-2.106202E-1,-1.2387066E0,-6.0285873E0,-6.6893497E0,-2.9041195E-1,-1.3916655E-1,-6.00949E0,3.6628592E0,1.4193196E1,-3.0678742E0,-9.128316E0,1.0165957E0,-1.4705552E-1,-5.703878E0,3.8258908E0,-6.7886276E0,1.041238E1,-7.604744E-1,1.4198914E1,2.314628E0,-1.1484824E1,5.040733E0,2.8154837E1,-7.8805256E0,5.7823267E0,-1.25780525E1,3.909731E0,-2.1856823E0,-1.5465996E1,-2.5170326E0,-1.2922935E1,2.710617E0,-8.388596E0,2.8181117E0,-2.4963582E0,-7.6739755E0,2.4363518E-1,3.4183332E-1,-5.907297E-1,1.3906202E1,1.9874573E-2,5.616534E-1,9.242644E0,-1.6146883E0,2.2655724E-2,-2.098403E0,3.3220766E0,-6.889866E0,-1.7222857E0,-4.630939E0,-1.3493593E1,-6.2961555E0,9.37686E0,-6.1111367E-1,6.030937E0,2.4666862E0,-7.6277432E0,4.553235E0,-7.49218E0,2.0300362E1,3.3549652E0,-4.8899436E0,-6.3456196E-1,1.430292E-1,7.0292015E0,-1.7928026E0,-3.613282E-2],"categories":[],"categories_nodes":[],"categories_segments":[],"categories_sizes":[],"default_left":[1,1,1,1,1,1,1,1,1,1,1,1,1,1,1,1,1,1,1,1,1,1,1,1,1,1,1,1,0,1,1,1,1,1,1,1,1,1,1,1,1,1,1,0,1,0,1,1,1,1,1,1,1,1,1,1,1,1,0,1,1,0,0,0,0,0,0,0,0,0,0,0,0,0,0,0,0,0,0,0,0,0,0,0,0,0,0,0,0,0,0,0,0,0,0,0,0,0,0,0,0,0,0,0,0,0,0,0,0,0,0,0,0,0,0],"id":17,"left_children":[1,3,5,7,9,11,13,15,17,19,21,23,25,27,29,31,33,35,37,39,41,43,45,47,49,51,53,55,-1,57,59,61,63,65,67,69,71,73,75,77,79,81,83,-1,85,-1,87,89,91,93,95,97,99,101,103,105,107,109,-1,111,113,-1,-1,-1,-1,-1,-1,-1,-1,-1,-1,-1,-1,-1,-1,-1,-1,-1,-1,-1,-1,-1,-1,-1,-1,-1,-1,-1,-1,-1,-1,-1,-1,-1,-1,-1,-1,-1,-1,-1,-1,-1,-1,-1,-1,-1,-1,-1,-1,-1,-1,-1,-1,-1,-1],"loss_changes":[3.0144012E2,4.592523E2,3.6025656E2,1.6628632E3,1.2296815E3,7.755999E2,1.8603293E3,7.746973E2,1.7218723E3,1.2353473E3,9.346564E2,3.4923938E2,4.599032E2,8.835449E2,4.9965076E2,6.552815E2,7.9297174E2,1.7069358E3,1.2689854E3,5.2062744E1,4.5137405E2,3.8920346E2,4.2663348E2,2.6036578E2,2.6928632E2,3.5211487E2,3.827658E2,4.8118713E2,0E0,1.3692535E2,2.6362622E2,4.1296182E2,4.5135938E2,4.449735E2,9.1948737E2,1.4731196E3,4.4395343E2,1.2816577E3,8.8918335E1,4.5414307E1,1.2833865E2,1.247811E2,1.4756967E2,0E0,2.965609E2,0E0,1.7091333E2,5.371891E2,1.3334343E2,1.9517374E2,4.747644E1,5.1175513E2,7.5574805E2,1.6384352E2,2.1084756E2,5.2079047E2,2.6284735E2,6.783563E1,0E0,1.1177583E3,4.1341257E2,0E0,0E0,0E0,0E0,0E0,0E0,0E0,0E0,0E0,0E0,0E0,0E0,0E0,0E0,0E0,0E0,0E0,0E0,0E0,0E0,0E0,0E0,0E0,0E0,0E0,0E0,0E0,0E0,0E0,0E0,0E0,0E0,0E0,0E0,0E0,0E0,0E0,0E0,0E0,0E0,0E0,0E0,0E0,0E0,0E0,0E0,0E0,0E0,0E0,0E0,0E0,0E0,0E0,0E0],"parents":[2147483647,0,0,1,1,2,2,3,3,4,4,5,5,6,6,7,7,8,8,9,9,10,10,11,11,12,12,13,13,14,14,15,15,16,16,17,17,18,18,19,19,20,20,21,21,22,22,23,23,24,24,25,25,26,26,27,27,29,29,30,30,31,31,32,32,33,33,34,34,35,35,36,36,37,37,38,38,39,39,40,40,41,41,42,42,44,44,46,46,47,47,48,48,49,49,50,50,51,51,52,52,53,53,54,54,55,55,56,56,57,57,59,59,60,60],"right_children":[2,4,6,8,10,12,14,16,18,20,22,24,26,28,30,32,34,36,38,40,42,44,46,48,50,52,54,56,-1,58,60,62,64,66,68,70,72,74,76,78,80,82,84,-1,86,-1,88,90,92,94,96,98,100,102,104,106,108,110,-1,112,114,-1,-1,-1,-1,-1,-1,-1,-1,-1,-1,-1,-1,-1,-1,-1,-1,-1,-1,-1,-1,-1,-1,-1,-1,-1,-1,-1,-1,-1,-1,-1,-1,-1,-1,-1,-1,-1,-1,-1,-1,-1,-1,-1,-1,-1,-1,-1,-1,-1,-1,-1,-1,-1,-1],"split_conditions":[-2.4638633E-1,-7.8975147E-1,-7.7145636E-2,-1.0526555E0,-7.0351756E-1,4.152786E-1,-7.3592454E-2,-1.0979567E0,-6.993711E-1,-5.907407E-1,4.028837E0,-8.625293E-2,-1.730619E-1,-7.396005E-2,-1.182518E0,-1.1354753E0,-4.5463583E-1,-8.253342E-1,2.060392E0,1.3811182E0,3.40266E-1,-6.990543E-1,-7.044107E-1,-1.5834494E0,6.719364E-1,1.8561463E0,1.9163127E0,2.9500806E0,6.807504E0,8.169088E-1,-9.691286E-1,-2.5358406E-1,-1.6927867E0,8.000415E0,-1.0845654E0,-5.8238655E-2,-1.5834494E0,-6.5173364E-1,3.9434046E-2,-7.8101665E-1,2.1413507E0,9.2984885E-2,9.0409714E-1,3.4593875E0,6.719364E-1,-7.959936E-1,2.4458234E0,9.2984885E-2,-2.3187461E-1,5.7258815E-2,-3.4623528E-1,1.3960891E0,7.9019576E-1,2.831255E0,2.2736306E-1,2.060392E0,3.7705312E0,-7.142433E-3,-2.7384949E0,1.0708578E0,-8.4270775E-1,-1.7111634E0,1.1477673E0,-2.0365884E0,3.1237142E0,-2.2814232E-1,4.259674E0,6.943884E-1,-3.4454474E0,1.5122199E0,8.446451E0,-2.3641577E0,1.734698E0,-3.7734158E0,1.1729193E0,-6.5570474E-1,-4.639799E0,-7.5510985E-1,-3.8768804E0,8.1318516E-1,-2.5165787E0,8.4543353E-1,-7.4890745E-1,-2.3021927E0,7.309055E-2,1.0255E-1,-1.7721891E-1,4.1718607E0,5.9623723E-3,1.6849601E-1,2.7727933E0,-4.844065E-1,6.796717E-3,-6.295209E-1,9.96623E-1,-2.0669599E0,-5.166857E-1,-1.3892817E0,-4.048078E0,-1.8888468E0,2.813058E0,-1.8333411E-1,1.8092812E0,7.400059E-1,-2.2883232E0,1.3659706E0,-2.247654E0,6.090109E0,1.0064896E0,-1.4669831E0,-1.903686E-1,4.290876E-2,2.1087606E0,-5.378408E-1,-1.0839846E-2],"split_indices":[2,1,2,1,1,0,2,2,2,2,3,2,1,2,1,2,2,1,5,3,0,1,2,8,14,0,0,0,0,0,1,0,15,3,1,0,8,2,0,0,0,4,5,0,14,0,5,4,2,3,1,4,13,5,1,5,0,2,0,0,1,0,0,0,0,0,0,0,0,0,0,0,0,0,0,0,0,0,0,0,0,0,0,0,0,0,0,0,0,0,0,0,0,0,0,0,0,0,0,0,0,0,0,0,0,0,0,0,0,0,0,0,0,0,0],"split_type":[0,0,0,0,0,0,0,0,0,0,0,0,0,0,0,0,0,0,0,0,0,0,0,0,0,0,0,0,0,0,0,0,0,0,0,0,0,0,0,0,0,0,0,0,0,0,0,0,0,0,0,0,0,0,0,0,0,0,0,0,0,0,0,0,0,0,0,0,0,0,0,0,0,0,0,0,0,0,0,0,0,0,0,0,0,0,0,0,0,0,0,0,0,0,0,0,0,0,0,0,0,0,0,0,0,0,0,0,0,0,0,0,0,0,0],"sum_hessian":[5.942E3,2.763E3,3.179E3,7.46E2,2.017E3,6.29E2,2.55E3,6.18E2,1.28E2,5.1E1,1.966E3,5.11E2,1.18E2,5.4E1,2.496E3,3.5E1,5.83E2,2.6E1,1.02E2,1.7E1,3.4E1,1.956E3,1E1,4.49E2,6.2E1,5.1E1,6.7E1,5.2E1,2E0,2E1,2.476E3,1.8E1,1.7E1,4.21E2,1.62E2,1.2E1,1.4E1,9.8E1,4E0,1.4E1,3E0,2.2E1,1.2E1,2E0,1.954E3,2E0,8E0,4.3E1,4.06E2,4.7E1,1.5E1,4E1,1.1E1,5.4E1,1.3E1,4.8E1,4E0,1.5E1,5E0,2.12E2,2.264E3,6E0,1.2E1,1E0,1.6E1,4.2E2,1E0,1.58E2,4E0,5E0,7E0,2E0,1.2E1,4E0,9.4E1,1E0,3E0,1E0,1.3E1,1E0,2E0,1.7E1,5E0,9E0,3E0,1.515E3,4.39E2,7E0,1E0,3.5E1,8E0,5.7E1,3.49E2,4E1,7E0,1.2E1,3E0,3.2E1,8E0,7E0,4E0,5.1E1,3E0,2E0,1.1E1,4.5E1,3E0,2E0,2E0,8E0,7E0,1.86E2,2.6E1,1.42E2,2.122E3],"tree_param":{"num_deleted":"0","num_feature":"17","num_nodes":"115","size_leaf_vector":"0"}},{"base_weights":[5.807665E-2,1.3907501E-1,-4.5029134E-1,-6.276582E0,1.5032756E-1,-3.2106656E-1,-3.6103036E0,-1.0280573E1,-1.0172741E0,1.9097449E0,9.7560816E-2,1.7156844E-1,-5.8949775E-1,-4.432098E0,-5.909083E-1,4.2371554E0,-5.932612E0,1.5415372E0,2.820224E1,-3.2678454E0,1.365701E-1,-7.433214E-3,5.522555E0,-9.566545E-1,-4.921758E-2,-4.7855854E0,2.0258026E0,-1.1022549E0,1.4942589E0,7.416466E-1,4.663052E0,1.6745667E0,-6.660494E0,4.3928366E0,1.1391171E-1,-2.6600352E-1,3.5971063E-1,8.721783E-1,1.1117481E1,-7.972069E-1,-2.0814073E0,-1.0172319E-1,5.3834686E0,-1.8877425E0,-5.1096706E0,-1.23797E0,-1.4398193E-1,1.04039E0,-6.277782E0,2.4454369E1,3.1373386E0,-2.364087E0,4.728183E0,-1.479631E1,-3.1397471E0,1.0505462E0,9.635447E0,-1.128821E0,1.7857666E-1,-4.2939246E-1,5.863089E-1,1.3400246E-1,1.2272769E0,1.5745946E1,-1.3839576E0,-4.257474E-1,-1.29201E0,-2.3736067E0,9.2263925E-1,-1.592632E-2,-2.5385303E0,-2.8690913E0,-5.8146296E0],"categories":[],"categories_nodes":[],"categories_segments":[],"categories_sizes":[],"default_left":[1,1,1,1,1,1,1,0,1,1,1,1,1,1,1,0,0,1,0,1,1,1,1,1,1,1,0,1,0,1,1,1,1,1,1,1,1,0,1,1,1,1,0,0,1,0,0,0,0,0,0,0,0,0,0,0,0,0,0,0,0,0,0,0,0,0,0,0,0,0,0,0,0],"id":18,"left_children":[1,3,5,7,9,11,13,-1,15,17,19,21,23,25,27,-1,-1,29,-1,31,33,35,37,39,41,43,-1,45,-1,47,49,51,53,55,57,59,61,-1,63,65,67,69,-1,-1,71,-1,-1,-1,-1,-1,-1,-1,-1,-1,-1,-1,-1,-1,-1,-1,-1,-1,-1,-1,-1,-1,-1,-1,-1,-1,-1,-1,-1],"loss_changes":[2.4477737E2,3.7107468E2,3.3246436E2,1.7906583E2,4.750551E2,1.04040665E2,7.6783356E1,0E0,1.5427386E2,1.3990088E3,6.5304944E2,2.6631927E2,1.00922E2,6.676431E1,1.0176999E1,0E0,0E0,3.6607846E2,0E0,9.6692175E2,4.7350287E2,2.5727457E1,2.2447021E2,5.268045E1,5.9593647E1,1.2893799E1,0E0,7.3211956E-1,0E0,2.5607532E2,8.291546E2,3.071578E2,9.2744434E2,4.4545798E2,3.9316818E2,2.2393848E1,2.1767021E1,0E0,2.5324161E2,4.8524338E1,3.4667862E1,4.3028076E1,0E0,0E0,1.6487183E1,0E0,0E0,0E0,0E0,0E0,0E0,0E0,0E0,0E0,0E0,0E0,0E0,0E0,0E0,0E0,0E0,0E0,0E0,0E0,0E0,0E0,0E0,0E0,0E0,0E0,0E0,0E0,0E0],"parents":[2147483647,0,0,1,1,2,2,3,3,4,4,5,5,6,6,8,8,9,9,10,10,11,11,12,12,13,13,14,14,17,17,19,19,20,20,21,21,22,22,23,23,24,24,25,25,27,27,29,29,30,30,31,31,32,32,33,33,34,34,35,35,36,36,38,38,39,39,40,40,41,41,44,44],"right_children":[2,4,6,8,10,12,14,-1,16,18,20,22,24,26,28,-1,-1,30,-1,32,34,36,38,40,42,44,-1,46,-1,48,50,52,54,56,58,60,62,-1,64,66,68,70,-1,-1,72,-1,-1,-1,-1,-1,-1,-1,-1,-1,-1,-1,-1,-1,-1,-1,-1,-1,-1,-1,-1,-1,-1,-1,-1,-1,-1,-1,-1],"split_conditions":[1.0531871E0,-1.2395825E0,7.543982E-1,5.7258815E-2,-9.057995E-1,-7.5023264E-1,2.7049775E0,-3.084172E0,1.6217318E0,-9.073829E-1,-8.701228E-1,-8.436204E-1,1.2048787E-1,2.831255E0,2.0859704E0,1.2711467E0,-1.7797836E0,5.6686664E-1,8.460672E0,-1.3950235E-1,-1.9586265E0,-1.1132851E0,9.2984885E-2,9.2984885E-2,6.410979E-1,-1.5834494E0,6.077408E-1,1.02909155E-1,4.4827768E-1,1.3811182E0,9.2984885E-2,-5.520718E-1,-1.6135998E0,7.8956044E-1,-7.617506E-1,6.719364E-1,5.7258815E-2,2.616535E-1,2.3367376E0,1.3822808E0,9.212383E-1,3.1291762E-1,1.6150407E0,-5.663228E-1,1.4096978E0,-3.71391E-1,-4.319458E-2,3.12117E-1,-1.8833346E0,7.336311E0,9.412016E-1,-7.0922613E-1,1.4184549E0,-4.4388933E0,-9.4192415E-1,3.1516385E-1,2.890634E0,-3.3864632E-1,5.3573E-2,-1.2881774E-1,1.7589268E-1,4.020074E-2,3.6818308E-1,4.723784E0,-4.151873E-1,-1.2772423E-1,-3.87603E-1,-7.12082E-1,2.7679178E-1,-4.777896E-3,-7.615591E-1,-8.607274E-1,-1.7443889E0],"split_indices":[1,2,0,3,2,2,3,0,0,2,2,2,2,5,1,0,0,0,0,0,1,2,4,4,0,8,0,2,0,3,4,0,1,0,2,14,3,0,1,1,12,0,0,0,1,0,0,0,0,0,0,0,0,0,0,0,0,0,0,0,0,0,0,0,0,0,0,0,0,0,0,0,0],"split_type":[0,0,0,0,0,0,0,0,0,0,0,0,0,0,0,0,0,0,0,0,0,0,0,0,0,0,0,0,0,0,0,0,0,0,0,0,0,0,0,0,0,0,0,0,0,0,0,0,0,0,0,0,0,0,0,0,0,0,0,0,0,0,0,0,0,0,0,0,0,0,0,0,0],"sum_hessian":[5.942E3,5.126E3,8.16E2,8E0,5.118E3,7.85E2,3.1E1,4E0,4E0,1.48E2,4.97E3,2.77E2,5.08E2,2.4E1,7E0,2E0,2E0,1.47E2,1E0,5.6E1,4.914E3,2.69E2,8E0,3.02E2,2.06E2,2.3E1,1E0,6E0,1E0,1.18E2,2.9E1,2.3E1,3.3E1,2.5E1,4.889E3,1.58E2,1.11E2,5E0,3E0,2.66E2,3.6E1,2.05E2,1E0,3E0,2E1,5E0,1E0,1.14E2,4E0,1E0,2.8E1,1E1,1.3E1,9E0,2.4E1,1.6E1,9E0,2.41E2,4.648E3,1.33E2,2.5E1,8.9E1,2.2E1,2E0,1E0,1.53E2,1.13E2,3.3E1,3E0,1.99E2,6E0,6E0,1.4E1],"tree_param":{"num_deleted":"0","num_feature":"17","num_nodes":"73","size_leaf_vector":"0"}},{"base_weights":[4.2709045E-2,-9.157725E-1,8.443319E-2,-1.8028777E0,-3.6258578E-1,3.2450902E-1,-8.673467E-2,-1.4817568E0,-6.3192096E0,1.2746366E0,-6.746471E-1,2.8783682E-1,1.2668118E1,-2.7959075E0,-2.848203E-2,-1.3084635E0,-8.452435E0,-6.8365283E0,-1.8663077E0,-9.36402E-1,1.8742164E0,-1.8533471E0,-3.4767383E-1,1.0043721E0,2.1979103E-2,8.387141E-1,2.1330492E1,-1.8674834E0,-5.0235934E0,-4.3066974E0,-1.0009927E-2,-2.0852356E0,-7.663846E-1,1.6209135E0,-2.6202881E0,2.870631E0,9.707208E-1,-1.2475007E0,-5.176551E0,-1.542921E0,1.1912401E-1,3.8318244E-1,4.0607586E0,-3.7052536E0,1.1941003E-1,-3.052353E0,3.1531875E0,2.8796164E1,-5.3326035E-1,-2.859721E0,1.2528818E0,1.0977325E0,-5.403544E0,-7.1639104E0,6.969045E-1,8.9271145E0,-1.827685E-2,-2.4328468E0,1.303865E0,1.9004917E0,-9.605242E-1,-7.678766E-1,-2.9817998E0,-3.7700891E-1,3.3237119E0,2.2151725E-1,2.4137487E0,-1.9886829E0,1.4310236E0,1.0692734E0,-1.7760196E0,1.041038E0,-3.6265376E-1,-1.6450378E-1,2.8780093E0,2.3717358E0,9.039986E0,-8.648721E0,-5.715321E-1,8.102343E-2,8.146477E0,-8.754699E-1,-4.902329E0,3.3652637E0,-1.0384834E0,-6.3473706E0,-1.4913543E0,-2.5382981E0,-1.0356741E1,-1.5958462E0,1.4746239E0,1.0121869E0,-7.669406E-2],"categories":[],"categories_nodes":[],"categories_segments":[],"categories_sizes":[],